{"learner":{"attributes":{"scikit_learn":"{\"_estimator_type\": \"regressor\"}"},"feature_names":[],"feature_types":[],"gradient_booster":{"model":{"cats":{"enc":[],"feature_segments":[],"sorted_idx":[]},"gbtree_model_param":{"num_parallel_tree":"1","num_trees":"200"},"iteration_indptr":[0,1,2,3,4,5,6,7,8,9,10,11,12,13,14,15,16,17,18,19,20,21,22,23,24,25,26,27,28,29,30,31,32,33,34,35,36,37,38,39,40,41,42,43,44,45,46,47,48,49,50,51,52,53,54,55,56,57,58,59,60,61,62,63,64,65,66,67,68,69,70,71,72,73,74,75,76,77,78,79,80,81,82,83,84,85,86,87,88,89,90,91,92,93,94,95,96,97,98,99,100,101,102,103,104,105,106,107,108,109,110,111,112,113,114,115,116,117,118,119,120,121,122,123,124,125,126,127,128,129,130,131,132,133,134,135,136,137,138,139,140,141,142,143,144,145,146,147,148,149,150,151,152,153,154,155,156,157,158,159,160,161,162,163,164,165,166,167,168,169,170,171,172,173,174,175,176,177,178,179,180,181,182,183,184,185,186,187,188,189,190,191,192,193,194,195,196,197,198,199,200],"tree_info":[0,0,0,0,0,0,0,0,0,0,0,0,0,0,0,0,0,0,0,0,0,0,0,0,0,0,0,0,0,0,0,0,0,0,0,0,0,0,0,0,0,0,0,0,0,0,0,0,0,0,0,0,0,0,0,0,0,0,0,0,0,0,0,0,0,0,0,0,0,0,0,0,0,0,0,0,0,0,0,0,0,0,0,0,0,0,0,0,0,0,0,0,0,0,0,0,0,0,0,0,0,0,0,0,0,0,0,0,0,0,0,0,0,0,0,0,0,0,0,0,0,0,0,0,0,0,0,0,0,0,0,0,0,0,0,0,0,0,0,0,0,0,0,0,0,0,0,0,0,0,0,0,0,0,0,0,0,0,0,0,0,0,0,0,0,0,0,0,0,0,0,0,0,0,0,0,0,0,0,0,0,0,0,0,0,0,0,0,0,0,0,0,0,0,0,0,0,0,0,0],"trees":[{"base_weights":[-2.3527604E-1,5.4529045E1,-1.27268166E2,1.5723009E2,1.547216E1,-8.2827126E1,-1.5827307E2,1.0963297E2,2.3849738E2,5.394783E1,-2.9678343E1,4.25897E1,-1.0825199E2,-1.6365532E2,-1.4630664E2,2.0668391E2,8.85605E1,4.775729E2,1.9769434E2,2.1563264E2,1.0017769E1,-4.11551E1,2.3276123E1,1.7125485E2,3.8630931E0,-5.2901672E1,-1.14020805E2,-1.5835742E2,-1.7596762E2,-8.236553E1,-1.4815657E2,1.6214005E2,4.9971158E2,8.659907E1,3.0027786E2,3.2133417E2,7.6197406E2,2.674971E2,1.6960187E2,3.418591E2,1.6990178E2,6.182579E1,-9.707079E0,-1.0451015E1,-4.7713634E1,3.2192865E2,2.0337496E1,3.229152E1,3.7394113E2,2.953162E-1,1.9010717E1,-1.2970937E1,-1.0193735E2,-1.16411446E2,1.7489218E1,-1.4762334E2,-1.6470335E2,-1.02266235E2,-1.7729323E2,-4.6079445E1,-1.2737338E2,-1.4979335E2,-1.106423E2,6.515694E1,1.9481384E2,2.1139644E2,6.9450415E2,8.961246E1,-3.7358265E1,3.3052383E1,2.2076508E2,2.716499E2,4.5996945E2,7.1467444E2,6.6452576E1,1.7246858E2,3.302812E2,1.975762E2,9.298584E1,1.4931924E2,3.9817477E2,8.7137566E1,1.9809418E2,2.4437376E1,7.448017E1,1.5197716E1,-2.4502428E1,-5.870552E0,-5.0629314E1,3.951113E1,-4.8947952E1,4.093572E1,2.1688396E1,6.3696396E1,1.0378998E1,2.0013196E2,-1.655451E1,4.0852222E2,-5.455949E0,-2.326289E1,5.7597466E1,-5.1344303E1,1.1807648E2,-1.20330475E2,-7.98337E1,-1.1077818E2,-1.3345117E2,5.2630486E1,-6.199311E1,-1.511008E2,-1.0704908E2,-1.7861938E2,-1.5945502E2,1.3962543E0,-7.349655E0,-1.7772223E2,-2.3142817E0,-5.895567E0,1.1452504E1,-7.513078E0,-3.5574245E0,-8.799048E0,-1.4864922E2,-6.936804E1,-1.2479655E2,1.5093368E0,1.0447379E1,1.2312142E1,3.6309884E0,3.3119053E1,7.0968413E0,4.1000805E1,1.5363814E1,3.7694054E0,5.7504253E0,-6.0473766E0,-1.2411486E0,1.3564096E1,4.377576E0,2.449598E1,1.0417267E1,2.3580995E0,2.5666748E1,4.036581E1,2.9193647E1,3.0580322E1,7.8567543E0,1.6785208E1,6.2125415E-1,1.034913E1,5.941162E0,5.512855E0,-1.9934876E0,2.2210957E1,6.0474553E0,1.1326961E1,2.2548998E1,3.9597318E0,2.8073883E1,8.654971E0,1.859058E1,3.3294588E-1,3.7326512E0,2.7613435E0,5.1390743E0,-8.239643E-1,1.3740996E0,-5.8510685E-1,-2.128495E0,-1.6015789E-1,-3.7249794E0,2.2187255E-1,-2.7975612E0,-2.6798496E0,7.6290407E0,-2.2266319E0,-3.4100425E0,2.260718E0,-2.7261516E-1,2.1366506E0,7.8072753E0,-9.016515E-1,1.3118163E0,1.5832718E1,-8.068976E0,-3.082794E0,8.363814E0,1.2422403E1,2.4853888E1,2.129406E0,-4.9361997E0,6.0219374E0,1.0447867E0,-1.4841155E0,-7.4639E0,2.6392576E1,6.340403E-1,-3.945174E0,-6.640751E0,1.0641803E0,-4.8736076E0,-5.8907857E0,-4.3751116E0,-7.523887E0,-6.095295E0,-6.3063055E-1,4.5011E0,-6.558567E0,-4.6658912E-1,-9.271868E0,-7.248143E0,3.1419052E1,-7.5269656E0,-9.103555E0,-8.100406E0,-8.1518755E0,-6.9414544E0,-9.075985E0,-8.131894E0,-7.391491E0,-8.822684E0,-7.210447E0,5.8525043E0,-3.761833E0,-6.418958E0],"categories":[],"categories_nodes":[],"categories_segments":[],"categories_sizes":[],"default_left":[0,0,0,0,0,0,0,0,0,0,0,0,0,0,0,0,0,0,0,0,0,0,0,0,0,0,0,0,0,0,0,0,0,0,0,0,0,0,0,0,0,0,0,0,0,0,0,0,0,0,0,0,0,0,0,0,0,0,0,0,0,0,0,0,0,0,0,0,0,0,0,0,0,0,0,0,0,0,0,0,0,0,0,0,0,0,0,0,0,0,0,0,0,0,0,0,0,0,0,0,0,0,0,0,0,0,0,0,0,0,0,0,0,0,0,0,0,0,0,0,0,0,0,0,0,0,0,0,0,0,0,0,0,0,0,0,0,0,0,0,0,0,0,0,0,0,0,0,0,0,0,0,0,0,0,0,0,0,0,0,0,0,0,0,0,0,0,0,0,0,0,0,0,0,0,0,0,0,0,0,0,0,0,0,0,0,0,0,0,0,0,0,0,0,0,0,0,0,0,0,0,0,0,0,0,0,0,0,0,0,0,0,0,0,0,0,0,0,0,0,0,0,0,0,0],"id":0,"left_children":[1,3,5,7,9,11,13,15,17,19,21,23,25,27,29,31,33,35,37,39,41,43,45,47,49,51,53,55,57,59,61,63,65,67,69,71,73,75,77,79,81,83,85,87,89,91,93,95,97,99,-1,101,103,105,107,109,111,113,115,117,119,121,123,125,127,129,131,133,135,-1,137,139,141,143,-1,145,147,149,151,153,155,157,159,161,163,165,167,169,171,173,175,-1,177,179,181,183,185,187,-1,189,191,193,195,197,199,201,203,205,207,209,211,213,215,-1,-1,217,-1,-1,-1,-1,-1,-1,219,221,223,-1,-1,-1,-1,-1,-1,-1,-1,-1,-1,-1,-1,-1,-1,-1,-1,-1,-1,-1,-1,-1,-1,-1,-1,-1,-1,-1,-1,-1,-1,-1,-1,-1,-1,-1,-1,-1,-1,-1,-1,-1,-1,-1,-1,-1,-1,-1,-1,-1,-1,-1,-1,-1,-1,-1,-1,-1,-1,-1,-1,-1,-1,-1,-1,-1,-1,-1,-1,-1,-1,-1,-1,-1,-1,-1,-1,-1,-1,-1,-1,-1,-1,-1,-1,-1,-1,-1,-1,-1,-1,-1,-1,-1,-1,-1,-1,-1,-1,-1,-1],"loss_changes":[2.7636858E8,1.11343976E8,1.6476128E7,2.9556992E7,3.494009E7,1.5693044E7,4.29984E5,9.849328E6,2.7453728E7,7.712741E7,5.625037E6,4.1350332E6,1.300244E6,2.88704E5,2.47552E5,1.11442E7,1.620952E6,1.801772E7,4.68832E6,1.3333992E7,8.727672E6,1.53115E6,1.440662E6,5.3957885E6,8.578969E5,7.583936E5,1.166548E6,2.07488E5,1.23632E5,9.8652875E4,1.14396E5,2.357572E6,6.19945E6,1.471702E6,8.86753E5,1.714142E6,2.93944E6,4.065736E6,3.676648E6,6.61984E6,3.961048E6,1.112395E6,2.2797595E6,2.4630997E5,6.76657E5,2.3687245E6,7.048829E5,9.46122E5,1.347548E6,8.571992E5,0E0,1.0872395E6,6.113425E4,3.34424E5,1.904011E5,1.6358E5,1.27084E5,1.6715022E5,7.1808E4,7.582413E5,2.5341906E4,3.4996E4,4.567425E4,9.4908625E5,3.49505E6,1.378269E6,3.004344E6,1.377778E6,9.549245E4,0E0,1.8486412E5,2.647603E6,1.495838E6,1.176632E6,0E0,1.769079E6,7.11176E5,9.10268E5,1.066788E6,1.1259275E6,4.211944E6,1.5944625E6,5.454356E6,5.3247875E5,9.52792E5,8.977844E5,8.9705625E5,2.2016647E5,4.039753E4,9.34616E5,5.2231E5,0E0,7.2701445E3,5.844315E5,5.996898E5,1.1463305E6,7.565053E5,9.1131E5,0E0,2.2403395E6,4.2416444E5,3.4984944E5,2.1095435E6,3.761975E4,1.4832581E5,4.3852E5,1.58378E5,1.1579369E5,7.5279305E4,2.19914E5,3.4209335E6,3.47E3,9.2344E4,0E0,0E0,5.1764E4,0E0,0E0,0E0,0E0,0E0,0E0,1.8616E4,3.7962388E5,2.414875E3,0E0,0E0,0E0,0E0,0E0,0E0,0E0,0E0,0E0,0E0,0E0,0E0,0E0,0E0,0E0,0E0,0E0,0E0,0E0,0E0,0E0,0E0,0E0,0E0,0E0,0E0,0E0,0E0,0E0,0E0,0E0,0E0,0E0,0E0,0E0,0E0,0E0,0E0,0E0,0E0,0E0,0E0,0E0,0E0,0E0,0E0,0E0,0E0,0E0,0E0,0E0,0E0,0E0,0E0,0E0,0E0,0E0,0E0,0E0,0E0,0E0,0E0,0E0,0E0,0E0,0E0,0E0,0E0,0E0,0E0,0E0,0E0,0E0,0E0,0E0,0E0,0E0,0E0,0E0,0E0,0E0,0E0,0E0,0E0,0E0,0E0,0E0,0E0,0E0,0E0,0E0,0E0,0E0,0E0,0E0,0E0,0E0,0E0,0E0,0E0],"parents":[2147483647,0,0,1,1,2,2,3,3,4,4,5,5,6,6,7,7,8,8,9,9,10,10,11,11,12,12,13,13,14,14,15,15,16,16,17,17,18,18,19,19,20,20,21,21,22,22,23,23,24,24,25,25,26,26,27,27,28,28,29,29,30,30,31,31,32,32,33,33,34,34,35,35,36,36,37,37,38,38,39,39,40,40,41,41,42,42,43,43,44,44,45,45,46,46,47,47,48,48,49,49,51,51,52,52,53,53,54,54,55,55,56,56,57,57,58,58,59,59,60,60,61,61,62,62,63,63,64,64,65,65,66,66,67,67,68,68,70,70,71,71,72,72,73,73,75,75,76,76,77,77,78,78,79,79,80,80,81,81,82,82,83,83,84,84,85,85,86,86,87,87,88,88,89,89,90,90,92,92,93,93,94,94,95,95,96,96,97,97,99,99,100,100,101,101,102,102,103,103,104,104,105,105,106,106,107,107,108,108,109,109,110,110,111,111,112,112,115,115,122,122,123,123,124,124],"right_children":[2,4,6,8,10,12,14,16,18,20,22,24,26,28,30,32,34,36,38,40,42,44,46,48,50,52,54,56,58,60,62,64,66,68,70,72,74,76,78,80,82,84,86,88,90,92,94,96,98,100,-1,102,104,106,108,110,112,114,116,118,120,122,124,126,128,130,132,134,136,-1,138,140,142,144,-1,146,148,150,152,154,156,158,160,162,164,166,168,170,172,174,176,-1,178,180,182,184,186,188,-1,190,192,194,196,198,200,202,204,206,208,210,212,214,216,-1,-1,218,-1,-1,-1,-1,-1,-1,220,222,224,-1,-1,-1,-1,-1,-1,-1,-1,-1,-1,-1,-1,-1,-1,-1,-1,-1,-1,-1,-1,-1,-1,-1,-1,-1,-1,-1,-1,-1,-1,-1,-1,-1,-1,-1,-1,-1,-1,-1,-1,-1,-1,-1,-1,-1,-1,-1,-1,-1,-1,-1,-1,-1,-1,-1,-1,-1,-1,-1,-1,-1,-1,-1,-1,-1,-1,-1,-1,-1,-1,-1,-1,-1,-1,-1,-1,-1,-1,-1,-1,-1,-1,-1,-1,-1,-1,-1,-1,-1,-1,-1,-1,-1,-1,-1,-1,-1,-1,-1,-1],"split_conditions":[2E0,5E-2,6E0,3.58E2,2.2E1,1.4E-1,3.58E2,1.5E1,1.2E1,9.4E-1,3.57E2,1.59E2,3.8E-1,2.75E2,3.59E2,4E0,1.1E2,3E0,3.64E2,2.6E-1,1.81E0,1.3E-1,3E1,9.3E1,1.1E1,2E0,9.87E0,5E-2,8E0,4E0,8.1E1,1.07E2,1.72E2,3.3E1,1.3E2,2E0,1E0,3.63E2,3.1E1,9.2E1,2E0,2E0,2.74E0,9E0,2.9E1,1E-1,1.1E-1,8E0,2E0,3.65E2,1.9010717E1,1.3E1,2.7E2,3.35E2,3.02E2,3.2E1,4E0,2.4E-1,1E2,1E0,3.8E1,3.62E2,9.7E-1,3E0,3.35E2,1.3E1,8E0,3.1E1,5E1,3.3052383E1,2.72E2,3.62E2,3.6E2,4E0,6.6452576E1,3E1,6.1E1,2E-2,2E-2,4E0,2E0,8.3E1,3.58E2,4.3E1,2.86E2,2E0,1.17E2,3.3E1,7.2E1,4.5E-1,3.1E1,4.093572E1,5E0,6E0,1E1,3E0,9E1,1.15E2,-5.455949E0,3.22E2,2E0,3.62E2,1.5E1,8.1E1,3.07E2,2.76E2,2E1,1.78E2,2.97E2,7.2E1,4.7E1,2.66E2,2.67E2,1.3962543E0,-7.349655E0,2.3E1,-2.3142817E0,-5.895567E0,1.1452504E1,-7.513078E0,-3.5574245E0,-8.799048E0,1E2,8.3E-1,9.2E1,1.5093368E0,1.0447379E1,1.2312142E1,3.6309884E0,3.3119053E1,7.0968413E0,4.1000805E1,1.5363814E1,3.7694054E0,5.7504253E0,-6.0473766E0,-1.2411486E0,1.3564096E1,4.377576E0,2.449598E1,1.0417267E1,2.3580995E0,2.5666748E1,4.036581E1,2.9193647E1,3.0580322E1,7.8567543E0,1.6785208E1,6.2125415E-1,1.034913E1,5.941162E0,5.512855E0,-1.9934876E0,2.2210957E1,6.0474553E0,1.1326961E1,2.2548998E1,3.9597318E0,2.8073883E1,8.654971E0,1.859058E1,3.3294588E-1,3.7326512E0,2.7613435E0,5.1390743E0,-8.239643E-1,1.3740996E0,-5.8510685E-1,-2.128495E0,-1.6015789E-1,-3.7249794E0,2.2187255E-1,-2.7975612E0,-2.6798496E0,7.6290407E0,-2.2266319E0,-3.4100425E0,2.260718E0,-2.7261516E-1,2.1366506E0,7.8072753E0,-9.016515E-1,1.3118163E0,1.5832718E1,-8.068976E0,-3.082794E0,8.363814E0,1.2422403E1,2.4853888E1,2.129406E0,-4.9361997E0,6.0219374E0,1.0447867E0,-1.4841155E0,-7.4639E0,2.6392576E1,6.340403E-1,-3.945174E0,-6.640751E0,1.0641803E0,-4.8736076E0,-5.8907857E0,-4.3751116E0,-7.523887E0,-6.095295E0,-6.3063055E-1,4.5011E0,-6.558567E0,-4.6658912E-1,-9.271868E0,-7.248143E0,3.1419052E1,-7.5269656E0,-9.103555E0,-8.100406E0,-8.1518755E0,-6.9414544E0,-9.075985E0,-8.131894E0,-7.391491E0,-8.822684E0,-7.210447E0,5.8525043E0,-3.761833E0,-6.418958E0],"split_indices":[20,17,13,12,13,17,12,13,13,17,12,12,17,12,12,13,13,13,12,17,17,17,13,12,11,13,17,17,13,11,11,12,12,13,13,13,11,12,13,12,13,13,17,11,12,17,17,12,11,12,0,11,12,12,12,13,11,17,13,11,11,12,17,13,12,12,13,13,13,0,12,12,12,13,0,13,13,17,17,12,13,11,12,11,12,13,11,13,12,17,13,0,11,11,11,20,12,12,0,12,13,12,11,12,12,12,11,11,11,12,12,12,12,0,0,11,0,0,0,0,0,0,13,17,11,0,0,0,0,0,0,0,0,0,0,0,0,0,0,0,0,0,0,0,0,0,0,0,0,0,0,0,0,0,0,0,0,0,0,0,0,0,0,0,0,0,0,0,0,0,0,0,0,0,0,0,0,0,0,0,0,0,0,0,0,0,0,0,0,0,0,0,0,0,0,0,0,0,0,0,0,0,0,0,0,0,0,0,0,0,0,0,0,0,0,0,0,0,0,0,0,0,0,0,0],"split_type":[0,0,0,0,0,0,0,0,0,0,0,0,0,0,0,0,0,0,0,0,0,0,0,0,0,0,0,0,0,0,0,0,0,0,0,0,0,0,0,0,0,0,0,0,0,0,0,0,0,0,0,0,0,0,0,0,0,0,0,0,0,0,0,0,0,0,0,0,0,0,0,0,0,0,0,0,0,0,0,0,0,0,0,0,0,0,0,0,0,0,0,0,0,0,0,0,0,0,0,0,0,0,0,0,0,0,0,0,0,0,0,0,0,0,0,0,0,0,0,0,0,0,0,0,0,0,0,0,0,0,0,0,0,0,0,0,0,0,0,0,0,0,0,0,0,0,0,0,0,0,0,0,0,0,0,0,0,0,0,0,0,0,0,0,0,0,0,0,0,0,0,0,0,0,0,0,0,0,0,0,0,0,0,0,0,0,0,0,0,0,0,0,0,0,0,0,0,0,0,0,0,0,0,0,0,0,0,0,0,0,0,0,0,0,0,0,0,0,0,0,0,0,0,0,0],"sum_hessian":[3.9724E4,2.7758E4,1.1966E4,7.647E3,2.0111E4,4.919E3,7.047E3,4.824E3,2.823E3,1.0858E4,9.253E3,8.29E2,4.09E3,4.852E3,2.195E3,8.59E2,3.965E3,4.1E2,2.413E3,2.319E3,8.539E3,7.605E3,1.648E3,1.91E2,6.38E2,3.87E2,3.703E3,3.402E3,1.45E3,6.3E1,2.132E3,7.47E2,1.12E2,3.93E3,3.5E1,2.66E2,1.44E2,6.9E2,1.723E3,6.15E2,1.704E3,2.354E3,6.185E3,1.339E3,6.266E3,1.5E1,1.633E3,1.14E2,7.7E1,6.33E2,5E0,2.14E2,1.73E2,3.637E3,6.6E1,1.273E3,2.129E3,2.7E1,1.423E3,3.6E1,2.7E1,2.04E3,9.2E1,1.89E2,5.58E2,4.6E1,6.6E1,3.837E3,9.3E1,5E0,3E1,1.98E2,6.8E1,1.35E2,9E0,2.76E2,4.14E2,1.261E3,4.62E2,1.4E2,4.75E2,4.34E2,1.27E3,5.96E2,1.758E3,2.305E3,3.88E3,1.203E3,1.36E2,8.7E1,6.179E3,5E0,1E1,3.04E2,1.329E3,2.5E1,8.9E1,7.2E1,5E0,4.49E2,1.84E2,1.66E2,4.8E1,9.2E1,8.1E1,2.739E3,8.98E2,4.6E1,2E1,1.17E3,1.03E2,5.74E2,1.555E3,7E0,2E1,1.418E3,5E0,2.9E1,7E0,1.8E1,9E0,7.9E1,1.961E3,2.5E1,6.7E1,1.53E2,3.6E1,3.92E2,1.66E2,5E0,4.1E1,4.9E1,1.7E1,2.462E3,1.375E3,1.1E1,8.2E1,2.1E1,9E0,4.3E1,1.55E2,8E0,6E1,7.6E1,5.9E1,8E0,2.68E2,4.07E2,7E0,1.125E3,1.36E2,4.09E2,5.3E1,1.1E1,1.29E2,1.13E2,3.62E2,4.28E2,6E0,1.112E3,1.58E2,4.41E2,1.55E2,1.048E3,7.1E2,6.44E2,1.661E3,2.272E3,1.608E3,1.159E3,4.4E1,1.2E1,1.24E2,4.8E1,3.9E1,5.029E3,1.15E3,5E0,5E0,2.49E2,5.5E1,4.76E2,8.53E2,1.9E1,6E0,7.2E1,1.7E1,2.7E1,4.5E1,2.4E2,2.09E2,6.7E1,1.17E2,1.37E2,2.9E1,9E0,3.9E1,2.3E1,6.9E1,1.2E1,6.9E1,2.1E3,6.39E2,3.58E2,5.4E2,1.7E1,2.9E1,8E0,1.2E1,1.73E2,9.97E2,5E0,9.8E1,4.67E2,1.07E2,1.319E3,2.36E2,1.124E3,2.94E2,1.911E3,5E1,1.8E1,7E0,6E0,6.1E1],"tree_param":{"num_deleted":"0","num_feature":"22","num_nodes":"225","size_leaf_vector":"1"}},{"base_weights":[-1.7981342E-4,-4.48855E1,1.3988713E3,-1.0305897E2,2.2822156E2,1.1389275E3,1.6047266E2,-1.4784523E2,-2.8094328E1,1.5355057E2,4.4463187E2,9.182689E2,1.6976685E3,-1.7460536E2,-1.1903182E2,-5.877733E1,1.4847749E1,1.0933119E2,2.2726187E2,3.758049E2,5.648925E2,7.872341E2,1.0945673E3,7.273531E1,9.7032555E1,-1.8922905E2,-1.6097351E2,-1.318394E2,-1.02361145E2,-7.38512E1,-4.1764862E1,-2.2114022E0,3.9723602E1,8.52486E1,1.368617E2,1.9407884E2,2.5996066E2,3.3755914E2,4.237825E2,2.5836044E1,3.0593937E1,3.7215435E1,4.363441E1,5.0456696E1,5.884678E1,-1.9862088E2,-1.8303801E2,-1.6764049E2,-1.5378044E2,-1.4018102E2,-1.2457116E2,-1.09155235E2,-9.489661E1,-8.091157E1,-6.585084E1,-4.8983776E1,-3.2004097E1,-1.3667603E1,7.885512E0,2.9902178E1,5.137675E1,7.394199E1,9.972689E1,1.2296047E2,1.495119E2,9.003577E0,1.0397026E1,1.2059928E1,1.39165945E1,1.5921984E1,1.7857412E1,1.9629545E1,2.1903921E1,-1.0287972E1,-9.760949E0,-9.345324E0,-8.933837E0,-8.565217E0,-8.191424E0,-7.8764153E0,-7.547315E0,-7.152421E0,-6.780543E0,-6.3971224E0,-5.990088E0,-5.606126E0,-5.214122E0,-4.9730563E0,-4.63527E0,-4.234684E0,-3.852719E0,-3.529576E0,-3.147456E0,-2.636713E0,-2.262247E0,-1.8135525E0,-1.3288447E0,-9.3888754E-1,-4.7492552E-1,1.6401502E-1,7.5007045E-1,1.2062337E0,1.7183548E0,2.32795E0,2.7839053E0,3.3817565E0,4.0133004E0,4.665278E0,5.23582E0,5.822435E0,6.5359483E0,7.1630983E0,7.794971E0],"categories":[],"categories_nodes":[],"categories_segments":[],"categories_sizes":[],"default_left":[0,0,0,0,0,0,0,0,0,0,0,0,0,0,0,0,0,0,0,0,0,0,0,0,0,0,0,0,0,0,0,0,0,0,0,0,0,0,0,0,0,0,0,0,0,0,0,0,0,0,0,0,0,0,0,0,0,0,0,0,0,0,0,0,0,0,0,0,0,0,0,0,0,0,0,0,0,0,0,0,0,0,0,0,0,0,0,0,0,0,0,0,0,0,0,0,0,0,0,0,0,0,0,0,0,0,0,0,0,0,0,0,0],"id":1,"left_children":[1,3,5,7,9,11,-1,13,15,17,19,21,23,25,27,29,31,33,35,37,39,41,43,-1,-1,45,47,49,51,53,55,57,59,61,63,65,67,69,71,-1,-1,-1,-1,-1,-1,73,75,77,79,81,83,85,87,89,91,93,95,97,99,101,103,105,107,109,111,-1,-1,-1,-1,-1,-1,-1,-1,-1,-1,-1,-1,-1,-1,-1,-1,-1,-1,-1,-1,-1,-1,-1,-1,-1,-1,-1,-1,-1,-1,-1,-1,-1,-1,-1,-1,-1,-1,-1,-1,-1,-1,-1,-1,-1,-1,-1,-1],"loss_changes":[2.5023217E9,6.135067E8,5.7947955E8,1.0687488E8,1.0950976E8,1.3221171E8,0E0,1.5344704E7,1.5689437E7,1.6412656E7,1.4181728E7,1.7157312E7,1.5241856E7,2.0288E6,2.035984E6,1.777918E6,2.1061915E6,2.079456E6,2.00028E6,1.891904E6,1.112032E6,1.0048E6,1.134528E6,0E0,0E0,2.53104E5,2.30944E5,3.11448E5,2.0138E5,2.02596E5,2.28491E5,3.4076262E5,2.2953925E5,2.68461E5,2.40118E5,1.4546E5,2.59972E5,1.19224E5,4.5616E4,0E0,0E0,0E0,0E0,0E0,0E0,7.568E3,1.7432E4,1.0576E4,3.7E3,1.36E4,3.1432E4,1.9812E4,1.0754E4,2.1936E4,1.93675E4,2.3906E4,3.1248375E4,2.9222078E4,5.1268938E4,2.7495062E4,1.651425E4,3.24615E4,1.3811E4,2.0446E4,8.206E3,0E0,0E0,0E0,0E0,0E0,0E0,0E0,0E0,0E0,0E0,0E0,0E0,0E0,0E0,0E0,0E0,0E0,0E0,0E0,0E0,0E0,0E0,0E0,0E0,0E0,0E0,0E0,0E0,0E0,0E0,0E0,0E0,0E0,0E0,0E0,0E0,0E0,0E0,0E0,0E0,0E0,0E0,0E0,0E0,0E0,0E0,0E0,0E0],"parents":[2147483647,0,0,1,1,2,2,3,3,4,4,5,5,7,7,8,8,9,9,10,10,11,11,12,12,13,13,14,14,15,15,16,16,17,17,18,18,19,19,20,20,21,21,22,22,25,25,26,26,27,27,28,28,29,29,30,30,31,31,32,32,33,33,34,34,35,35,36,36,37,37,38,38,45,45,46,46,47,47,48,48,49,49,50,50,51,51,52,52,53,53,54,54,55,55,56,56,57,57,58,58,59,59,60,60,61,61,62,62,63,63,64,64],"right_children":[2,4,6,8,10,12,-1,14,16,18,20,22,24,26,28,30,32,34,36,38,40,42,44,-1,-1,46,48,50,52,54,56,58,60,62,64,66,68,70,72,-1,-1,-1,-1,-1,-1,74,76,78,80,82,84,86,88,90,92,94,96,98,100,102,104,106,108,110,112,-1,-1,-1,-1,-1,-1,-1,-1,-1,-1,-1,-1,-1,-1,-1,-1,-1,-1,-1,-1,-1,-1,-1,-1,-1,-1,-1,-1,-1,-1,-1,-1,-1,-1,-1,-1,-1,-1,-1,-1,-1,-1,-1,-1,-1,-1,-1,-1],"split_conditions":[4.66E2,1.55E2,1.295E3,7.9E1,2.76E2,7.68E2,1.6047266E2,4.8E1,1.125E2,2.075E2,3.635E2,6E2,9.685E2,3.25E1,6.45E1,9.45E1,1.335E2,1.8E2,2.375E2,3.165E2,4.04E2,5.4E2,6.75E2,7.273531E1,9.7032555E1,2.35E1,4.05E1,5.55E1,7.2E1,8.65E1,1.03E2,1.22E2,1.45E2,1.68E2,1.925E2,2.22E2,2.53E2,2.955E2,3.285E2,2.5836044E1,3.0593937E1,3.7215435E1,4.363441E1,5.0456696E1,5.884678E1,1.85E1,2.8E1,3.65E1,4.4E1,5.25E1,6.05E1,6.9E1,7.45E1,8.25E1,8.95E1,9.95E1,1.08E2,1.16E2,1.285E2,1.38E2,1.5E2,1.61E2,1.74E2,1.87E2,2E2,9.003577E0,1.0397026E1,1.2059928E1,1.39165945E1,1.5921984E1,1.7857412E1,1.9629545E1,2.1903921E1,-1.0287972E1,-9.760949E0,-9.345324E0,-8.933837E0,-8.565217E0,-8.191424E0,-7.8764153E0,-7.547315E0,-7.152421E0,-6.780543E0,-6.3971224E0,-5.990088E0,-5.606126E0,-5.214122E0,-4.9730563E0,-4.63527E0,-4.234684E0,-3.852719E0,-3.529576E0,-3.147456E0,-2.636713E0,-2.262247E0,-1.8135525E0,-1.3288447E0,-9.3888754E-1,-4.7492552E-1,1.6401502E-1,7.5007045E-1,1.2062337E0,1.7183548E0,2.32795E0,2.7839053E0,3.3817565E0,4.0133004E0,4.665278E0,5.23582E0,5.822435E0,6.5359483E0,7.1630983E0,7.794971E0],"split_indices":[16,16,16,16,16,16,0,16,16,16,16,16,16,16,16,16,16,16,16,16,16,16,16,0,0,16,16,16,16,16,16,16,16,16,16,16,16,16,16,0,0,0,0,0,0,16,16,16,16,16,16,16,16,16,16,16,16,16,16,16,16,16,16,16,16,0,0,0,0,0,0,0,0,0,0,0,0,0,0,0,0,0,0,0,0,0,0,0,0,0,0,0,0,0,0,0,0,0,0,0,0,0,0,0,0,0,0,0,0,0,0,0,0],"split_type":[0,0,0,0,0,0,0,0,0,0,0,0,0,0,0,0,0,0,0,0,0,0,0,0,0,0,0,0,0,0,0,0,0,0,0,0,0,0,0,0,0,0,0,0,0,0,0,0,0,0,0,0,0,0,0,0,0,0,0,0,0,0,0,0,0,0,0,0,0,0,0,0,0,0,0,0,0,0,0,0,0,0,0,0,0,0,0,0,0,0,0,0,0,0,0,0,0,0,0,0,0,0,0,0,0,0,0,0,0,0,0,0,0],"sum_hessian":[3.9851E4,3.8613E4,1.238E3,3.1833E4,6.78E3,1.084E3,1.54E2,1.9927E4,1.1906E4,5.042E3,1.738E3,7.79E2,3.05E2,1.0329E4,9.598E3,6.944E3,4.962E3,3.153E3,1.889E3,1.108E3,6.3E2,4.5E2,3.29E2,1.56E2,1.49E2,4.977E3,5.352E3,5.424E3,4.174E3,3.68E3,3.264E3,2.944E3,2.018E3,1.684E3,1.469E3,9.41E2,9.48E2,6.21E2,4.87E2,3.17E2,3.13E2,3.06E2,1.44E2,1.68E2,1.61E2,1.965E3,3.012E3,2.766E3,2.586E3,2.517E3,2.907E3,2.178E3,1.996E3,1.95E3,1.73E3,1.874E3,1.39E3,1.379E3,1.565E3,1.097E3,9.21E2,9.49E2,7.35E2,7.05E2,7.64E2,4.75E2,4.66E2,4.76E2,4.72E2,3.23E2,2.98E2,1.62E2,3.25E2,6.15E2,1.35E3,1.574E3,1.438E3,1.388E3,1.378E3,1.09E3,1.496E3,1.528E3,9.89E2,1.688E3,1.219E3,1.34E3,8.38E2,6.33E2,1.363E3,9.74E2,9.76E2,6.48E2,1.082E3,9.29E2,9.45E2,7.75E2,6.15E2,6.18E2,7.61E2,9.51E2,6.14E2,4.81E2,6.16E2,4.4E2,4.81E2,4.81E2,4.68E2,3.3E2,4.05E2,3.92E2,3.13E2,3.98E2,3.66E2],"tree_param":{"num_deleted":"0","num_feature":"22","num_nodes":"113","size_leaf_vector":"1"}},{"base_weights":[1.1671343E0,-4.2375446E1,1.3320486E3,-9.804707E1,2.16941E2,1.0792823E3,1.5315355E2,-1.4060532E2,-2.6656794E1,1.4515944E2,4.25086E2,8.6728046E2,1.6126229E3,-1.6586696E2,-1.1333288E2,-5.5771366E1,1.3911329E1,1.0381414E2,2.1558092E2,3.5728223E2,5.38203E2,7.4777045E2,1.0359708E3,6.9232475E1,9.232621E1,-1.7971118E2,-1.5294333E2,-1.2645538E2,-9.873631E1,-7.007554E1,-3.9376522E1,-2.0540497E0,3.7832226E1,8.103501E1,1.2981268E2,1.8434242E2,2.4709174E2,3.213584E2,4.0307602E2,2.457637E1,2.914054E1,3.5424976E1,4.153323E1,4.7798405E1,5.5825623E1,-1.8806438E2,-1.7360832E2,-1.5878813E2,-1.4576315E2,-1.3311542E2,-1.1945994E2,-1.0630917E2,-9.137377E1,-7.6800095E1,-6.2546436E1,-4.5861126E1,-2.9357286E1,-1.3000708E1,7.669113E0,2.8566238E1,4.8817463E1,7.0345276E1,9.4700935E1,1.17029625E2,1.4156522E2,8.539902E0,9.88767E0,1.1446637E1,1.3209432E1,1.5143402E1,1.6985153E1,1.9357323E1,2.161084E1,-9.7119875E0,-9.223114E0,-8.849026E0,-8.461345E0,-8.117534E0,-7.7408385E0,-7.4336867E0,-7.094475E0,-6.7742386E0,-6.4037004E0,-6.164904E0,-5.830425E0,-5.485267E0,-5.131504E0,-4.7800746E0,-4.4045196E0,-4.02195E0,-3.662075E0,-3.252044E0,-2.8986495E0,-2.468554E0,-2.0910194E0,-1.6843796E0,-1.2574558E0,-8.417954E-1,-3.8785872E-1,1.603791E-1,7.179929E-1,1.1413267E0,1.6469783E0,2.2059858E0,2.6507366E0,3.2171426E0,3.8119226E0,4.432342E0,4.972887E0,5.5326023E0,6.2210374E0,6.776133E0,7.4061174E0],"categories":[],"categories_nodes":[],"categories_segments":[],"categories_sizes":[],"default_left":[0,0,0,0,0,0,0,0,0,0,0,0,0,0,0,0,0,0,0,0,0,0,0,0,0,0,0,0,0,0,0,0,0,0,0,0,0,0,0,0,0,0,0,0,0,0,0,0,0,0,0,0,0,0,0,0,0,0,0,0,0,0,0,0,0,0,0,0,0,0,0,0,0,0,0,0,0,0,0,0,0,0,0,0,0,0,0,0,0,0,0,0,0,0,0,0,0,0,0,0,0,0,0,0,0,0,0,0,0,0,0,0,0],"id":2,"left_children":[1,3,5,7,9,11,-1,13,15,17,19,21,23,25,27,29,31,33,35,37,39,41,43,-1,-1,45,47,49,51,53,55,57,59,61,63,65,67,69,71,-1,-1,-1,-1,-1,-1,73,75,77,79,81,83,85,87,89,91,93,95,97,99,101,103,105,107,109,111,-1,-1,-1,-1,-1,-1,-1,-1,-1,-1,-1,-1,-1,-1,-1,-1,-1,-1,-1,-1,-1,-1,-1,-1,-1,-1,-1,-1,-1,-1,-1,-1,-1,-1,-1,-1,-1,-1,-1,-1,-1,-1,-1,-1,-1,-1,-1,-1],"loss_changes":[2.3047864E9,5.560023E8,5.479995E8,9.632685E7,1.016415E8,1.2309056E8,0E0,1.3666432E7,1.3988822E7,1.4719032E7,1.3191456E7,1.5151872E7,1.4080064E7,1.817152E6,1.817704E6,1.61422E6,1.8901312E6,1.879864E6,1.797152E6,1.670192E6,1.071056E6,9.2848E5,1.026784E6,0E0,0E0,2.20816E5,2.00904E5,2.18352E5,2.42744E5,1.81566E5,2.075345E5,3.1610862E5,2.0024975E5,2.42268E5,2.0713E5,1.37694E5,2.2794E5,1.06736E5,5.4096E4,0E0,0E0,0E0,0E0,0E0,0E0,1.0592E4,1.2688E4,1.6352E4,6.052E3,1.3312E4,1.2568E4,1.6554E4,2.3546E4,1.9231E4,1.61025E4,2.5592E4,2.2222625E4,2.7963062E4,4.69095E4,2.6282438E4,1.55055E4,2.9053E4,1.26375E4,2.0124E4,1.0475E4,0E0,0E0,0E0,0E0,0E0,0E0,0E0,0E0,0E0,0E0,0E0,0E0,0E0,0E0,0E0,0E0,0E0,0E0,0E0,0E0,0E0,0E0,0E0,0E0,0E0,0E0,0E0,0E0,0E0,0E0,0E0,0E0,0E0,0E0,0E0,0E0,0E0,0E0,0E0,0E0,0E0,0E0,0E0,0E0,0E0,0E0,0E0,0E0],"parents":[2147483647,0,0,1,1,2,2,3,3,4,4,5,5,7,7,8,8,9,9,10,10,11,11,12,12,13,13,14,14,15,15,16,16,17,17,18,18,19,19,20,20,21,21,22,22,25,25,26,26,27,27,28,28,29,29,30,30,31,31,32,32,33,33,34,34,35,35,36,36,37,37,38,38,45,45,46,46,47,47,48,48,49,49,50,50,51,51,52,52,53,53,54,54,55,55,56,56,57,57,58,58,59,59,60,60,61,61,62,62,63,63,64,64],"right_children":[2,4,6,8,10,12,-1,14,16,18,20,22,24,26,28,30,32,34,36,38,40,42,44,-1,-1,46,48,50,52,54,56,58,60,62,64,66,68,70,72,-1,-1,-1,-1,-1,-1,74,76,78,80,82,84,86,88,90,92,94,96,98,100,102,104,106,108,110,112,-1,-1,-1,-1,-1,-1,-1,-1,-1,-1,-1,-1,-1,-1,-1,-1,-1,-1,-1,-1,-1,-1,-1,-1,-1,-1,-1,-1,-1,-1,-1,-1,-1,-1,-1,-1,-1,-1,-1,-1,-1,-1,-1,-1,-1,-1,-1,-1],"split_conditions":[4.66E2,1.55E2,1.295E3,7.9E1,2.76E2,7.68E2,1.5315355E2,4.8E1,1.125E2,2.075E2,3.635E2,6E2,9.685E2,3.25E1,6.3E1,9.45E1,1.335E2,1.8E2,2.375E2,3.165E2,4.04E2,5.4E2,6.75E2,6.9232475E1,9.232621E1,2.4E1,4.1E1,5.55E1,7.05E1,8.65E1,1.04E2,1.22E2,1.45E2,1.68E2,1.925E2,2.22E2,2.53E2,2.955E2,3.465E2,2.457637E1,2.914054E1,3.5424976E1,4.153323E1,4.7798405E1,5.5825623E1,1.95E1,2.85E1,3.7E1,1E0,5.3E1,5.9E1,6.7E1,7.45E1,8.25E1,9.1E1,1E2,1.08E2,1.175E2,1.285E2,1.38E2,1.5E2,1.61E2,1.74E2,1.87E2,2E2,8.539902E0,9.88767E0,1.1446637E1,1.3209432E1,1.5143402E1,1.6985153E1,1.9357323E1,2.161084E1,-9.7119875E0,-9.223114E0,-8.849026E0,-8.461345E0,-8.117534E0,-7.7408385E0,-7.4336867E0,-7.094475E0,-6.7742386E0,-6.4037004E0,-6.164904E0,-5.830425E0,-5.485267E0,-5.131504E0,-4.7800746E0,-4.4045196E0,-4.02195E0,-3.662075E0,-3.252044E0,-2.8986495E0,-2.468554E0,-2.0910194E0,-1.6843796E0,-1.2574558E0,-8.417954E-1,-3.8785872E-1,1.603791E-1,7.179929E-1,1.1413267E0,1.6469783E0,2.2059858E0,2.6507366E0,3.2171426E0,3.8119226E0,4.432342E0,4.972887E0,5.5326023E0,6.2210374E0,6.776133E0,7.4061174E0],"split_indices":[16,16,16,16,16,16,0,16,16,16,16,16,16,16,16,16,16,16,16,16,16,16,16,0,0,16,16,16,16,16,16,16,16,16,16,16,16,16,16,0,0,0,0,0,0,16,16,16,20,16,16,16,16,16,16,16,16,16,16,16,16,16,16,16,16,0,0,0,0,0,0,0,0,0,0,0,0,0,0,0,0,0,0,0,0,0,0,0,0,0,0,0,0,0,0,0,0,0,0,0,0,0,0,0,0,0,0,0,0,0,0,0,0],"split_type":[0,0,0,0,0,0,0,0,0,0,0,0,0,0,0,0,0,0,0,0,0,0,0,0,0,0,0,0,0,0,0,0,0,0,0,0,0,0,0,0,0,0,0,0,0,0,0,0,0,0,0,0,0,0,0,0,0,0,0,0,0,0,0,0,0,0,0,0,0,0,0,0,0,0,0,0,0,0,0,0,0,0,0,0,0,0,0,0,0,0,0,0,0,0,0,0,0,0,0,0,0,0,0,0,0,0,0,0,0,0,0,0,0],"sum_hessian":[3.977E4,3.8511E4,1.259E3,3.1705E4,6.806E3,1.1E3,1.59E2,1.9863E4,1.1842E4,5.062E3,1.744E3,7.89E2,3.11E2,1.0309E4,9.554E3,6.894E3,4.948E3,3.191E3,1.871E3,1.093E3,6.51E2,4.65E2,3.24E2,1.61E2,1.5E2,4.971E3,5.338E3,5.027E3,4.527E3,3.68E3,3.214E3,2.968E3,1.98E3,1.703E3,1.488E3,9.43E2,9.28E2,6.17E2,4.76E2,3.24E2,3.27E2,3.22E2,1.43E2,1.69E2,1.55E2,2.086E3,2.885E3,2.931E3,2.407E3,2.566E3,2.461E3,2.225E3,2.302E3,1.939E3,1.741E3,1.949E3,1.265E3,1.396E3,1.572E3,1.076E3,9.04E2,9.59E2,7.44E2,7.18E2,7.7E2,4.76E2,4.67E2,4.57E2,4.71E2,3.16E2,3.01E2,3.17E2,1.59E2,7.49E2,1.337E3,1.608E3,1.277E3,1.524E3,1.407E3,1.353E3,1.054E3,1.728E3,8.38E2,1.031E3,1.43E3,1.142E3,1.083E3,9.94E2,1.308E3,9.48E2,9.91E2,1.118E3,6.23E2,1.037E3,9.12E2,6.2E2,6.45E2,8.05E2,5.91E2,9.44E2,6.28E2,4.68E2,6.08E2,4.32E2,4.72E2,4.81E2,4.78E2,3.36E2,4.08E2,3.94E2,3.24E2,4.12E2,3.58E2],"tree_param":{"num_deleted":"0","num_feature":"22","num_nodes":"113","size_leaf_vector":"1"}},{"base_weights":[-5.1581216E-1,-4.090144E1,1.2610765E3,-9.212311E1,2.1065822E2,9.071069E2,2.2974695E3,-1.3269498E2,-2.2954731E1,1.4187495E2,4.0338544E2,7.652837E2,1.1905691E3,8.754354E1,1.4288162E2,-1.5710204E2,-1.0613808E2,-5.090697E1,1.6769163E1,1.0389696E2,2.0945343E2,3.398899E2,5.1081177E2,3.3516636E1,8.5505945E2,5.304353E1,6.546197E1,-1.7010304E2,-1.4416745E2,-1.1843309E2,-9.1567444E1,-6.444489E1,-3.4767612E1,-1.505283E-1,3.7721115E1,8.246225E1,1.2982143E2,1.8455827E2,2.404857E2,3.0632352E2,3.828945E2,2.3265738E1,2.7742044E1,3.946254E1,4.542906E1,-1.7766231E2,-1.6353204E2,-1.4978748E2,-1.3725911E2,-1.2486264E2,-1.1138133E2,-9.798114E1,-8.422291E1,-7.146311E1,-5.7496143E1,-4.0886234E1,-2.4283943E1,-9.300493E0,8.184776E0,2.6996912E1,4.824529E1,7.1420494E1,9.550488E1,1.1729977E2,1.4019753E2,8.543462E0,9.900247E0,1.1370217E1,1.2912778E1,1.4387471E1,1.6165771E1,1.8387394E1,2.0546373E1,-9.228236E0,-8.722692E0,-8.329969E0,-7.9806495E0,-7.6745276E0,-7.316364E0,-7.0034256E0,-6.6722693E0,-6.3994055E0,-6.046906E0,-5.7095556E0,-5.3844333E0,-5.0570407E0,-4.684404E0,-4.3314433E0,-4.016092E0,-3.7045152E0,-3.3759086E0,-3.061822E0,-2.6827767E0,-2.1981828E0,-1.7867798E0,-1.451547E0,-1.0808285E0,-6.753835E-1,-2.5459728E-1,1.9853292E-1,6.67746E-1,1.1542948E0,1.6213175E0,2.090421E0,2.6188557E0,3.345392E0,3.9795358E0,4.453779E0,4.981055E0,5.581121E0,6.1129103E0,6.6750054E0,7.4564424E0],"categories":[],"categories_nodes":[],"categories_segments":[],"categories_sizes":[],"default_left":[0,0,0,0,0,0,0,0,0,0,0,0,0,0,0,0,0,0,0,0,0,0,0,0,0,0,0,0,0,0,0,0,0,0,0,0,0,0,0,0,0,0,0,0,0,0,0,0,0,0,0,0,0,0,0,0,0,0,0,0,0,0,0,0,0,0,0,0,0,0,0,0,0,0,0,0,0,0,0,0,0,0,0,0,0,0,0,0,0,0,0,0,0,0,0,0,0,0,0,0,0,0,0,0,0,0,0,0,0,0,0,0,0],"id":3,"left_children":[1,3,5,7,9,11,13,15,17,19,21,23,25,-1,-1,27,29,31,33,35,37,39,41,-1,43,-1,-1,45,47,49,51,53,55,57,59,61,63,65,67,69,71,-1,-1,-1,-1,73,75,77,79,81,83,85,87,89,91,93,95,97,99,101,103,105,107,109,111,-1,-1,-1,-1,-1,-1,-1,-1,-1,-1,-1,-1,-1,-1,-1,-1,-1,-1,-1,-1,-1,-1,-1,-1,-1,-1,-1,-1,-1,-1,-1,-1,-1,-1,-1,-1,-1,-1,-1,-1,-1,-1,-1,-1,-1,-1,-1,-1],"loss_changes":[2.0236404E9,4.9592323E8,4.4987725E8,8.973091E7,8.62552E7,3.607424E7,9.083226E7,1.3046656E7,1.3128779E7,1.2297424E7,1.1504096E7,4.677792E6,3.30544E6,0E0,0E0,1.741184E6,1.718808E6,1.514104E6,1.7313864E6,1.698018E6,1.28904E6,1.440248E6,1.01184E6,0E0,3.85344E5,0E0,0E0,2.308E5,1.84056E5,2.23352E5,2.00092E5,1.79891E5,2.022205E5,2.0622783E5,2.449655E5,2.35986E5,1.64152E5,1.43244E5,1.191E5,9.9804E4,4.8024E4,0E0,0E0,0E0,0E0,2.1416E4,7.2E3,1.464E4,6.764E3,1.8E4,1.3694E4,2.247E4,1.2461E4,1.441E4,2.40225E4,3.011425E4,1.41869375E4,2.2754375E4,3.0776422E4,2.22485E4,2.706575E4,2.8484E4,1.1504E4,4.257E3,2.5254E4,0E0,0E0,0E0,0E0,0E0,0E0,0E0,0E0,0E0,0E0,0E0,0E0,0E0,0E0,0E0,0E0,0E0,0E0,0E0,0E0,0E0,0E0,0E0,0E0,0E0,0E0,0E0,0E0,0E0,0E0,0E0,0E0,0E0,0E0,0E0,0E0,0E0,0E0,0E0,0E0,0E0,0E0,0E0,0E0,0E0,0E0,0E0,0E0],"parents":[2147483647,0,0,1,1,2,2,3,3,4,4,5,5,6,6,7,7,8,8,9,9,10,10,11,11,12,12,15,15,16,16,17,17,18,18,19,19,20,20,21,21,22,22,24,24,27,27,28,28,29,29,30,30,31,31,32,32,33,33,34,34,35,35,36,36,37,37,38,38,39,39,40,40,45,45,46,46,47,47,48,48,49,49,50,50,51,51,52,52,53,53,54,54,55,55,56,56,57,57,58,58,59,59,60,60,61,61,62,62,63,63,64,64],"right_children":[2,4,6,8,10,12,14,16,18,20,22,24,26,-1,-1,28,30,32,34,36,38,40,42,-1,44,-1,-1,46,48,50,52,54,56,58,60,62,64,66,68,70,72,-1,-1,-1,-1,74,76,78,80,82,84,86,88,90,92,94,96,98,100,102,104,106,108,110,112,-1,-1,-1,-1,-1,-1,-1,-1,-1,-1,-1,-1,-1,-1,-1,-1,-1,-1,-1,-1,-1,-1,-1,-1,-1,-1,-1,-1,-1,-1,-1,-1,-1,-1,-1,-1,-1,-1,-1,-1,-1,-1,-1,-1,-1,-1,-1,-1],"split_conditions":[4.66E2,1.575E2,9.685E2,8E1,2.76E2,6.75E2,1.295E3,4.9E1,1.135E2,2.125E2,3.635E2,5.4E2,7.68E2,8.754354E1,1.4288162E2,3.3E1,6.45E1,9.6E1,1.335E2,1.83E2,2.435E2,3.165E2,4.04E2,3.3516636E1,6E2,5.304353E1,6.546197E1,2.5E1,4.2E1,5.7E1,7.25E1,8.75E1,1.06E2,1.235E2,1.45E2,1.71E2,1.955E2,2.255E2,2.605E2,2.955E2,3.465E2,2.3265738E1,2.7742044E1,3.946254E1,4.542906E1,1.95E1,2.95E1,3.75E1,2E0,5.3E1,6.1E1,6.9E1,7.65E1,8.4E1,9.1E1,1.015E2,1.09E2,1.185E2,1.285E2,1.4E2,1.5E2,1.655E2,1.755E2,1.895E2,2.03E2,8.543462E0,9.900247E0,1.1370217E1,1.2912778E1,1.4387471E1,1.6165771E1,1.8387394E1,2.0546373E1,-9.228236E0,-8.722692E0,-8.329969E0,-7.9806495E0,-7.6745276E0,-7.316364E0,-7.0034256E0,-6.6722693E0,-6.3994055E0,-6.046906E0,-5.7095556E0,-5.3844333E0,-5.0570407E0,-4.684404E0,-4.3314433E0,-4.016092E0,-3.7045152E0,-3.3759086E0,-3.061822E0,-2.6827767E0,-2.1981828E0,-1.7867798E0,-1.451547E0,-1.0808285E0,-6.753835E-1,-2.5459728E-1,1.9853292E-1,6.67746E-1,1.1542948E0,1.6213175E0,2.090421E0,2.6188557E0,3.345392E0,3.9795358E0,4.453779E0,4.981055E0,5.581121E0,6.1129103E0,6.6750054E0,7.4564424E0],"split_indices":[16,16,16,16,16,16,16,16,16,16,16,16,16,0,0,16,16,16,16,16,16,16,16,0,16,0,0,16,16,16,16,16,16,16,16,16,16,16,16,16,16,0,0,0,0,16,16,16,20,16,16,16,16,16,16,16,16,16,16,16,16,16,16,16,16,0,0,0,0,0,0,0,0,0,0,0,0,0,0,0,0,0,0,0,0,0,0,0,0,0,0,0,0,0,0,0,0,0,0,0,0,0,0,0,0,0,0,0,0,0,0,0,0],"split_type":[0,0,0,0,0,0,0,0,0,0,0,0,0,0,0,0,0,0,0,0,0,0,0,0,0,0,0,0,0,0,0,0,0,0,0,0,0,0,0,0,0,0,0,0,0,0,0,0,0,0,0,0,0,0,0,0,0,0,0,0,0,0,0,0,0,0,0,0,0,0,0,0,0,0,0,0,0,0,0,0,0,0,0,0,0,0,0,0,0,0,0,0,0,0,0,0,0,0,0,0,0,0,0,0,0,0,0,0,0,0,0,0,0],"sum_hessian":[3.9716E4,3.8485E4,1.231E3,3.1975E4,6.51E3,9.19E2,3.12E2,2.0153E4,1.1822E4,4.799E3,1.711E3,6.15E2,3.04E2,1.6E2,1.52E2,1.0499E4,9.654E3,6.939E3,4.883E3,3.074E3,1.725E3,1.078E3,6.33E2,3.03E2,3.12E2,1.5E2,1.54E2,5.23E3,5.269E3,5.232E3,4.422E3,3.772E3,3.167E3,2.702E3,2.181E3,1.685E3,1.389E3,9.61E2,7.64E2,6.1E2,4.68E2,3.17E2,3.16E2,1.47E2,1.65E2,2.42E3,2.81E3,2.894E3,2.375E3,2.728E3,2.504E3,2.354E3,2.068E3,1.872E3,1.9E3,1.998E3,1.169E3,1.288E3,1.414E3,1.082E3,1.099E3,9.16E2,7.69E2,6.35E2,7.54E2,4.83E2,4.78E2,4.48E2,3.16E2,3E2,3.1E2,3.13E2,1.55E2,7.5E2,1.67E3,1.553E3,1.257E3,1.377E3,1.517E3,1.347E3,1.028E3,1.501E3,1.227E3,1.405E3,1.099E3,1.343E3,1.011E3,1.266E3,8.02E2,1.113E3,7.59E2,9.55E2,9.45E2,1.246E3,7.52E2,4.17E2,7.52E2,6.43E2,6.45E2,7.8E2,6.34E2,6.32E2,4.5E2,4.34E2,6.65E2,5.96E2,3.2E2,3.09E2,4.6E2,3.07E2,3.28E2,4.4E2,3.14E2],"tree_param":{"num_deleted":"0","num_feature":"22","num_nodes":"113","size_leaf_vector":"1"}},{"base_weights":[-8.118929E-2,-3.8966675E1,1.1958181E3,-8.760945E1,1.9981891E2,8.6094147E2,2.1998372E3,-1.25472626E2,-2.05192E1,1.3507611E2,3.837172E2,7.276818E2,1.1251433E3,8.297827E1,1.3596735E2,-1.4935446E2,-1.0002758E2,-4.6245754E1,1.7351686E1,9.873666E1,1.996483E2,3.2328668E2,4.854866E2,3.1904774E1,8.1608813E2,5.043887E1,6.2282246E1,-1.6226672E2,-1.3761346E2,-1.1159636E2,-8.519124E1,-5.967961E1,-3.1162403E1,3.2053552E0,3.866044E1,7.835874E1,1.2353473E2,1.754506E2,2.28598E2,2.913651E2,3.6507492E2,2.2184414E1,5.260091E2,3.7445293E1,4.3206417E1,-1.7068481E2,-1.5734155E2,-1.4338252E2,-1.3097981E2,-1.1834624E2,-1.0466644E2,-9.163002E1,-7.8810524E1,-6.6035286E1,-5.275498E1,-3.805595E1,-2.1900496E1,-3.8664055E0,1.3781915E1,2.9841143E1,4.7335243E1,6.7820496E1,9.0760345E1,1.116301E2,1.331615E2,1.6618091E2,9.660499E0,1.0797258E1,1.2279704E1,1.36732025E1,1.5355234E1,1.6778921E1,1.8868055E1,2.4710756E1,2.7667557E1,-8.900618E0,-8.420524E0,-8.05821E0,-7.6855187E0,-7.315983E0,-6.9812546E0,-6.7137866E0,-6.402576E0,-6.084907E0,-5.726275E0,-5.4066544E0,-5.0772185E0,-4.751729E0,-4.4365096E0,-4.0648685E0,-3.7465444E0,-3.4684503E0,-3.137016E0,-2.8037274E0,-2.4601028E0,-2.033468E0,-1.6667765E0,-1.2780966E0,-8.9084524E-1,-5.003254E-1,4.6782266E-2,4.8129097E-1,8.4819E-1,1.2865461E0,1.6836693E0,2.202131E0,2.650327E0,3.0988035E0,3.679678E0,4.2479234E0,4.7251763E0,5.2955537E0,5.815101E0,6.3596263E0,7.082603E0,7.9061823E0,8.672343E0],"categories":[],"categories_nodes":[],"categories_segments":[],"categories_sizes":[],"default_left":[0,0,0,0,0,0,0,0,0,0,0,0,0,0,0,0,0,0,0,0,0,0,0,0,0,0,0,0,0,0,0,0,0,0,0,0,0,0,0,0,0,0,0,0,0,0,0,0,0,0,0,0,0,0,0,0,0,0,0,0,0,0,0,0,0,0,0,0,0,0,0,0,0,0,0,0,0,0,0,0,0,0,0,0,0,0,0,0,0,0,0,0,0,0,0,0,0,0,0,0,0,0,0,0,0,0,0,0,0,0,0,0,0,0,0,0,0],"id":4,"left_children":[1,3,5,7,9,11,13,15,17,19,21,23,25,-1,-1,27,29,31,33,35,37,39,41,-1,43,-1,-1,45,47,49,51,53,55,57,59,61,63,65,67,69,71,-1,73,-1,-1,75,77,79,81,83,85,87,89,91,93,95,97,99,101,103,105,107,109,111,113,115,-1,-1,-1,-1,-1,-1,-1,-1,-1,-1,-1,-1,-1,-1,-1,-1,-1,-1,-1,-1,-1,-1,-1,-1,-1,-1,-1,-1,-1,-1,-1,-1,-1,-1,-1,-1,-1,-1,-1,-1,-1,-1,-1,-1,-1,-1,-1,-1,-1,-1,-1],"loss_changes":[1.8517545E9,4.4796906E8,4.197289E8,8.138701E7,7.765923E7,3.2346688E7,8.333875E7,1.2430848E7,1.1263565E7,1.1311632E7,1.0291872E7,4.460928E6,3.1464E6,0E0,0E0,1.579056E6,1.692976E6,1.393028E6,1.409714E6,1.552808E6,1.177384E6,1.319616E6,8.35376E5,0E0,3.6304E5,0E0,0E0,1.81488E5,1.932E5,2.4816E5,1.71496E5,1.56716E5,2.0635125E5,2.1037655E5,1.41347E5,2.1602E5,1.44778E5,1.2445E5,1.16424E5,8.8172E4,3.9704E4,0E0,3.6E2,0E0,0E0,7.32E2,1.9408E4,1.2152E4,7.784E3,2.21E4,1.8858E4,1.288E4,1.5057E4,1.6452E4,1.78455E4,2.157775E4,2.028275E4,4.972121E4,1.4740422E4,1.3750875E4,1.519975E4,2.6581E4,8.867E3,4.4885E3,2.0753E4,9.572E3,0E0,0E0,0E0,0E0,0E0,0E0,0E0,0E0,0E0,0E0,0E0,0E0,0E0,0E0,0E0,0E0,0E0,0E0,0E0,0E0,0E0,0E0,0E0,0E0,0E0,0E0,0E0,0E0,0E0,0E0,0E0,0E0,0E0,0E0,0E0,0E0,0E0,0E0,0E0,0E0,0E0,0E0,0E0,0E0,0E0,0E0,0E0,0E0,0E0,0E0,0E0],"parents":[2147483647,0,0,1,1,2,2,3,3,4,4,5,5,6,6,7,7,8,8,9,9,10,10,11,11,12,12,15,15,16,16,17,17,18,18,19,19,20,20,21,21,22,22,24,24,27,27,28,28,29,29,30,30,31,31,32,32,33,33,34,34,35,35,36,36,37,37,38,38,39,39,40,40,42,42,45,45,46,46,47,47,48,48,49,49,50,50,51,51,52,52,53,53,54,54,55,55,56,56,57,57,58,58,59,59,60,60,61,61,62,62,63,63,64,64,65,65],"right_children":[2,4,6,8,10,12,14,16,18,20,22,24,26,-1,-1,28,30,32,34,36,38,40,42,-1,44,-1,-1,46,48,50,52,54,56,58,60,62,64,66,68,70,72,-1,74,-1,-1,76,78,80,82,84,86,88,90,92,94,96,98,100,102,104,106,108,110,112,114,116,-1,-1,-1,-1,-1,-1,-1,-1,-1,-1,-1,-1,-1,-1,-1,-1,-1,-1,-1,-1,-1,-1,-1,-1,-1,-1,-1,-1,-1,-1,-1,-1,-1,-1,-1,-1,-1,-1,-1,-1,-1,-1,-1,-1,-1,-1,-1,-1,-1,-1,-1],"split_conditions":[4.66E2,1.575E2,9.685E2,8.05E1,2.76E2,6.75E2,1.295E3,4.9E1,1.15E2,2.125E2,3.635E2,5.4E2,7.68E2,8.297827E1,1.3596735E2,3.25E1,6.55E1,9.7E1,1.365E2,1.83E2,2.435E2,3.165E2,4.04E2,3.1904774E1,6E2,5.043887E1,6.2282246E1,2.3E1,4.1E1,5.75E1,7.3E1,8.85E1,1.06E2,1.27E2,1.47E2,1.71E2,1.955E2,2.315E2,2.605E2,2.955E2,3.285E2,2.2184414E1,4.32E2,3.7445293E1,4.3206417E1,1.75E1,2.75E1,3.75E1,4.5E1,5.3E1,6.1E1,6.9E1,7.75E1,8.45E1,9.25E1,1.02E2,1.11E2,1.205E2,1.315E2,1.41E2,1.525E2,1.64E2,1.755E2,1.895E2,2.03E2,2.22E2,9.660499E0,1.0797258E1,1.2279704E1,1.36732025E1,1.5355234E1,1.6778921E1,1.8868055E1,2.4710756E1,2.7667557E1,-8.900618E0,-8.420524E0,-8.05821E0,-7.6855187E0,-7.315983E0,-6.9812546E0,-6.7137866E0,-6.402576E0,-6.084907E0,-5.726275E0,-5.4066544E0,-5.0772185E0,-4.751729E0,-4.4365096E0,-4.0648685E0,-3.7465444E0,-3.4684503E0,-3.137016E0,-2.8037274E0,-2.4601028E0,-2.033468E0,-1.6667765E0,-1.2780966E0,-8.9084524E-1,-5.003254E-1,4.6782266E-2,4.8129097E-1,8.4819E-1,1.2865461E0,1.6836693E0,2.202131E0,2.650327E0,3.0988035E0,3.679678E0,4.2479234E0,4.7251763E0,5.2955537E0,5.815101E0,6.3596263E0,7.082603E0,7.9061823E0,8.672343E0],"split_indices":[16,16,16,16,16,16,16,16,16,16,16,16,16,0,0,16,16,16,16,16,16,16,16,0,16,0,0,16,16,16,16,16,16,16,16,16,16,16,16,16,16,0,16,0,0,16,16,16,16,16,16,16,16,16,16,16,16,16,16,16,16,16,16,16,16,16,0,0,0,0,0,0,0,0,0,0,0,0,0,0,0,0,0,0,0,0,0,0,0,0,0,0,0,0,0,0,0,0,0,0,0,0,0,0,0,0,0,0,0,0,0,0,0,0,0,0,0],"split_type":[0,0,0,0,0,0,0,0,0,0,0,0,0,0,0,0,0,0,0,0,0,0,0,0,0,0,0,0,0,0,0,0,0,0,0,0,0,0,0,0,0,0,0,0,0,0,0,0,0,0,0,0,0,0,0,0,0,0,0,0,0,0,0,0,0,0,0,0,0,0,0,0,0,0,0,0,0,0,0,0,0,0,0,0,0,0,0,0,0,0,0,0,0,0,0,0,0,0,0,0,0,0,0,0,0,0,0,0,0,0,0,0,0,0,0,0,0],"sum_hessian":[3.9818E4,3.8565E4,1.253E3,3.2039E4,6.526E3,9.41E2,3.12E2,2.048E4,1.1559E4,4.828E3,1.698E3,6.28E2,3.13E2,1.55E2,1.57E2,1.0562E4,9.918E3,6.883E3,4.676E3,3.091E3,1.737E3,1.068E3,6.3E2,3.16E2,3.12E2,1.64E2,1.49E2,5.024E3,5.538E3,5.569E3,4.349E3,3.639E3,3.244E3,2.811E3,1.865E3,1.699E3,1.392E3,9.5E2,7.87E2,6.1E2,4.58E2,3.16E2,3.14E2,1.37E2,1.75E2,1.842E3,3.182E3,2.951E3,2.587E3,2.813E3,2.756E3,2.158E3,2.191E3,1.893E3,1.746E3,1.858E3,1.386E3,1.685E3,1.126E3,9.27E2,9.38E2,9.22E2,7.77E2,6.28E2,7.64E2,6.31E2,3.19E2,4.59E2,3.28E2,2.94E2,3.16E2,1.43E2,3.15E2,1.54E2,1.6E2,4.18E2,1.424E3,1.529E3,1.653E3,1.635E3,1.316E3,1.196E3,1.391E3,1.482E3,1.331E3,1.29E3,1.466E3,9.78E2,1.18E3,1.323E3,8.68E2,9.31E2,9.62E2,8.95E2,8.51E2,1.191E3,6.67E2,7.28E2,6.58E2,7.39E2,9.46E2,4.9E2,6.36E2,4.51E2,4.76E2,5.99E2,3.39E2,4.64E2,4.58E2,3.14E2,4.63E2,2.93E2,3.35E2,4.58E2,3.06E2,3.1E2,3.21E2],"tree_param":{"num_deleted":"0","num_feature":"22","num_nodes":"117","size_leaf_vector":"1"}},{"base_weights":[-3.682024E-1,-3.6601734E1,1.1413285E3,-8.376446E1,1.8626192E2,8.188461E2,2.0743306E3,-1.2085579E2,-2.3614252E1,1.2184421E2,3.5217966E2,6.8703925E2,1.073838E3,7.906116E1,1.2881912E2,-1.4292867E2,-9.798847E1,-4.828985E1,1.1949314E1,8.952393E1,1.7981297E2,2.8773776E2,4.4350284E2,3.0266333E1,7.722756E2,4.7740246E1,5.9682392E1,-1.5518178E2,-1.3273376E2,-1.0964827E2,-8.580362E1,-6.053397E1,-3.377229E1,-1.9044542E0,3.241386E1,6.951917E1,1.1148778E2,1.5356856E2,2.0182677E2,2.6098624E2,3.227083E2,4.0495206E2,2.497405E1,3.5491146E1,4.1002575E1,-8.155332E0,-1.5080295E2,-1.3892578E2,-1.2706883E2,-1.1536685E2,-1.038035E2,-9.180215E1,-7.883904E1,-6.6240875E1,-5.3600807E1,-3.921109E1,-2.5089897E1,-1.1365419E1,6.448543E0,2.3138245E1,4.055719E1,6.0361485E1,8.0999954E1,1.0017851E2,1.2156825E2,7.095775E0,8.054431E0,9.3732195E0,1.0737422E1,1.2239874E1,1.3778749E1,1.5551105E1,1.7171974E1,1.9342428E1,2.1972942E1,-7.686715E0,-7.366592E0,-7.0663157E0,-6.7848954E0,-6.4924426E0,-6.183112E0,-5.8881125E0,-5.5553827E0,-5.2693343E0,-4.932731E0,-4.7334495E0,-4.39601E0,-4.102359E0,-3.802613E0,-3.4602005E0,-3.1382692E0,-2.8768508E0,-2.5581117E0,-2.1481087E0,-1.7989047E0,-1.3984098E0,-1.0284247E0,-7.7698797E-1,-3.97405E-1,1.3667355E-1,6.0395026E-1,8.965351E-1,1.2838231E0,1.6990362E0,2.1736808E0,2.749922E0,3.268854E0,3.7987843E0,4.2489834E0,4.7345705E0,5.326923E0,5.81673E0,6.3504868E0],"categories":[],"categories_nodes":[],"categories_segments":[],"categories_sizes":[],"default_left":[0,0,0,0,0,0,0,0,0,0,0,0,0,0,0,0,0,0,0,0,0,0,0,0,0,0,0,0,0,0,0,0,0,0,0,0,0,0,0,0,0,0,0,0,0,0,0,0,0,0,0,0,0,0,0,0,0,0,0,0,0,0,0,0,0,0,0,0,0,0,0,0,0,0,0,0,0,0,0,0,0,0,0,0,0,0,0,0,0,0,0,0,0,0,0,0,0,0,0,0,0,0,0,0,0,0,0,0,0,0,0,0,0],"id":5,"left_children":[1,3,5,7,9,11,13,15,17,19,21,23,25,-1,-1,27,29,31,33,35,37,39,41,-1,43,-1,-1,45,47,49,51,53,55,57,59,61,63,65,67,69,71,73,-1,-1,-1,-1,75,77,79,81,83,85,87,89,91,93,95,97,99,101,103,105,107,109,111,-1,-1,-1,-1,-1,-1,-1,-1,-1,-1,-1,-1,-1,-1,-1,-1,-1,-1,-1,-1,-1,-1,-1,-1,-1,-1,-1,-1,-1,-1,-1,-1,-1,-1,-1,-1,-1,-1,-1,-1,-1,-1,-1,-1,-1,-1,-1,-1],"loss_changes":[1.6474281E9,4.0572416E8,3.6687552E8,7.107398E7,7.201584E7,2.991424E7,7.36617E7,9.932544E6,1.0665466E7,9.085688E6,1.0965696E7,3.739296E6,3.267072E6,0E0,0E0,1.231728E6,1.366136E6,1.273347E6,1.4116635E6,1.36356E6,9.7312E5,9.52328E5,1.476656E6,0E0,2.89152E5,0E0,0E0,1.33184E5,1.74544E5,1.53268E5,1.90748E5,1.50404E5,1.5413975E5,2.3478472E5,1.5088575E5,1.671155E5,1.5723E5,4.698E4,1.3456E5,8.2036E4,8.504E3,1.21104E5,0E0,0E0,0E0,0E0,7.284E3,1.02E3,1.1152E4,1.232E4,9.616E3,1.9946E4,1.3429E4,1.7592E4,1.3969E4,2.292725E4,1.59264375E4,1.9747688E4,3.2974906E4,1.19908125E4,1.9026E4,2.099E4,8E3,1.45495E4,7.466E3,0E0,0E0,0E0,0E0,0E0,0E0,0E0,0E0,0E0,0E0,0E0,0E0,0E0,0E0,0E0,0E0,0E0,0E0,0E0,0E0,0E0,0E0,0E0,0E0,0E0,0E0,0E0,0E0,0E0,0E0,0E0,0E0,0E0,0E0,0E0,0E0,0E0,0E0,0E0,0E0,0E0,0E0,0E0,0E0,0E0,0E0,0E0,0E0],"parents":[2147483647,0,0,1,1,2,2,3,3,4,4,5,5,6,6,7,7,8,8,9,9,10,10,11,11,12,12,15,15,16,16,17,17,18,18,19,19,20,20,21,21,22,22,24,24,27,27,28,28,29,29,30,30,31,31,32,32,33,33,34,34,35,35,36,36,37,37,38,38,39,39,40,40,41,41,46,46,47,47,48,48,49,49,50,50,51,51,52,52,53,53,54,54,55,55,56,56,57,57,58,58,59,59,60,60,61,61,62,62,63,63,64,64],"right_children":[2,4,6,8,10,12,14,16,18,20,22,24,26,-1,-1,28,30,32,34,36,38,40,42,-1,44,-1,-1,46,48,50,52,54,56,58,60,62,64,66,68,70,72,74,-1,-1,-1,-1,76,78,80,82,84,86,88,90,92,94,96,98,100,102,104,106,108,110,112,-1,-1,-1,-1,-1,-1,-1,-1,-1,-1,-1,-1,-1,-1,-1,-1,-1,-1,-1,-1,-1,-1,-1,-1,-1,-1,-1,-1,-1,-1,-1,-1,-1,-1,-1,-1,-1,-1,-1,-1,-1,-1,-1,-1,-1,-1,-1,-1],"split_conditions":[4.66E2,1.55E2,9.685E2,7.8E1,2.69E2,6.75E2,1.295E3,4.75E1,1.125E2,2.075E2,3.465E2,5.4E2,7.68E2,7.906116E1,1.2881912E2,3.1E1,6.25E1,9.45E1,1.335E2,1.8E2,2.315E2,3.025E2,4.04E2,3.0266333E1,6E2,4.7740246E1,5.9682392E1,2.25E1,3.9E1,5.5E1,7.05E1,8.65E1,1.04E2,1.22E2,1.43E2,1.68E2,1.925E2,2.165E2,2.495E2,2.855E2,3.285E2,3.845E2,2.497405E1,3.5491146E1,4.1002575E1,-8.155332E0,2.7E1,3.55E1,4.35E1,2E0,2E0,6.7E1,7.45E1,8.25E1,8.95E1,9.95E1,1.09E2,1.16E2,1.285E2,1.365E2,1.47E2,1.61E2,1.74E2,1.87E2,2E2,7.095775E0,8.054431E0,9.3732195E0,1.0737422E1,1.2239874E1,1.3778749E1,1.5551105E1,1.7171974E1,1.9342428E1,2.1972942E1,-7.686715E0,-7.366592E0,-7.0663157E0,-6.7848954E0,-6.4924426E0,-6.183112E0,-5.8881125E0,-5.5553827E0,-5.2693343E0,-4.932731E0,-4.7334495E0,-4.39601E0,-4.102359E0,-3.802613E0,-3.4602005E0,-3.1382692E0,-2.8768508E0,-2.5581117E0,-2.1481087E0,-1.7989047E0,-1.3984098E0,-1.0284247E0,-7.7698797E-1,-3.97405E-1,1.3667355E-1,6.0395026E-1,8.965351E-1,1.2838231E0,1.6990362E0,2.1736808E0,2.749922E0,3.268854E0,3.7987843E0,4.2489834E0,4.7345705E0,5.326923E0,5.81673E0,6.3504868E0],"split_indices":[16,16,16,16,16,16,16,16,16,16,16,16,16,0,0,16,16,16,16,16,16,16,16,0,16,0,0,16,16,16,16,16,16,16,16,16,16,16,16,16,16,16,0,0,0,0,16,16,16,20,20,16,16,16,16,16,16,16,16,16,16,16,16,16,16,0,0,0,0,0,0,0,0,0,0,0,0,0,0,0,0,0,0,0,0,0,0,0,0,0,0,0,0,0,0,0,0,0,0,0,0,0,0,0,0,0,0,0,0,0,0,0,0],"split_type":[0,0,0,0,0,0,0,0,0,0,0,0,0,0,0,0,0,0,0,0,0,0,0,0,0,0,0,0,0,0,0,0,0,0,0,0,0,0,0,0,0,0,0,0,0,0,0,0,0,0,0,0,0,0,0,0,0,0,0,0,0,0,0,0,0,0,0,0,0,0,0,0,0,0,0,0,0,0,0,0,0,0,0,0,0,0,0,0,0,0,0,0,0,0,0,0,0,0,0,0,0,0,0,0,0,0,0,0,0,0,0,0,0],"sum_hessian":[3.9822E4,3.8598E4,1.224E3,3.1857E4,6.741E3,9.11E2,3.13E2,1.9705E4,1.2152E4,4.857E3,1.884E3,6.03E2,3.08E2,1.6E2,1.53E2,1.0024E4,9.681E3,7.174E3,4.978E3,3.12E3,1.737E3,1.107E3,7.77E2,3.12E2,2.91E2,1.59E2,1.49E2,4.546E3,5.478E3,4.943E3,4.738E3,3.89E3,3.284E3,2.969E3,2.009E3,1.635E3,1.485E3,7.96E2,9.41E2,6.32E2,4.75E2,4.65E2,3.12E2,1.33E2,1.58E2,1.605E3,2.941E3,2.606E3,2.872E3,2.489E3,2.454E3,2.539E3,2.199E3,2.129E3,1.761E3,2.017E3,1.267E3,1.392E3,1.577E3,9.41E2,1.068E3,9.13E2,7.22E2,7.05E2,7.8E2,3.2E2,4.76E2,4.53E2,4.88E2,3.08E2,3.24E2,3.14E2,1.61E2,3.13E2,1.52E2,1.571E3,1.37E3,1.47E3,1.136E3,1.561E3,1.311E3,1.576E3,9.13E2,1.862E3,5.92E2,1.447E3,1.092E3,1.009E3,1.19E3,1.139E3,9.9E2,6.65E2,1.096E3,9.28E2,1.089E3,7.71E2,4.96E2,6.25E2,7.67E2,9.51E2,6.26E2,3.11E2,6.3E2,3.32E2,7.36E2,4.47E2,4.66E2,3.28E2,3.94E2,3.87E2,3.18E2,4.09E2,3.71E2],"tree_param":{"num_deleted":"0","num_feature":"22","num_nodes":"113","size_leaf_vector":"1"}},{"base_weights":[2.76035E-1,-3.4927708E1,1.085569E3,-7.876291E1,1.805315E2,8.862007E2,1.2566774E2,-1.1304231E2,-1.8700605E1,1.22056496E2,3.4492505E2,7.1349084E2,1.3226528E3,-1.3439827E2,-8.998222E1,-4.0985153E1,1.6495687E1,8.937054E1,1.7999106E2,2.9101257E2,4.387799E2,6.11255E2,8.4649426E2,5.582893E1,7.550201E1,-1.4538203E2,-1.22821846E2,-1.0085096E2,-7.743352E1,-5.3644142E1,-2.7258911E1,3.510984E0,3.4831295E1,7.0716576E1,1.11333206E2,1.5775648E2,2.0601292E2,2.6242664E2,3.2835956E2,2.006819E1,4.7431E2,2.88689E1,3.3801174E1,3.9044548E1,4.550799E1,-1.5175029E2,-1.3921059E2,-1.2769366E2,-1.17069046E2,-1.0672679E2,-9.5172905E1,-8.318879E1,-7.121126E1,-5.950873E1,-4.738941E1,-3.4211086E1,-1.911225E1,-2.800084E0,1.2469706E1,2.6966427E1,4.2777546E1,5.9154293E1,7.97163E1,1.006679E2,1.2035585E2,7.3077555E0,8.476002E0,9.7368765E0,1.1097527E1,1.2314035E1,1.3846748E1,1.5166986E1,1.7022528E1,2.2293818E1,2.5083693E1,-7.9019694E0,-7.4380746E0,-7.095437E0,-6.8064203E0,-6.499891E0,-6.2074833E0,-5.9516788E0,-5.6851406E0,-5.447165E0,-5.16008E0,-4.8899703E0,-4.6067863E0,-4.319927E0,-3.992632E0,-3.6772068E0,-3.3759525E0,-3.1360748E0,-2.8458498E0,-2.4944468E0,-2.1664362E0,-1.8445456E0,-1.5326129E0,-1.1503588E0,-7.7355283E-1,-4.1259056E-1,3.924063E-2,4.3250152E-1,7.758092E-1,1.2184074E0,1.61568E0,1.985416E0,2.4057353E0,2.7920425E0,3.2155144E0,3.724406E0,4.261146E0,4.7833757E0,5.2486534E0,5.736738E0,6.39725E0],"categories":[],"categories_nodes":[],"categories_segments":[],"categories_sizes":[],"default_left":[0,0,0,0,0,0,0,0,0,0,0,0,0,0,0,0,0,0,0,0,0,0,0,0,0,0,0,0,0,0,0,0,0,0,0,0,0,0,0,0,0,0,0,0,0,0,0,0,0,0,0,0,0,0,0,0,0,0,0,0,0,0,0,0,0,0,0,0,0,0,0,0,0,0,0,0,0,0,0,0,0,0,0,0,0,0,0,0,0,0,0,0,0,0,0,0,0,0,0,0,0,0,0,0,0,0,0,0,0,0,0,0,0,0,0],"id":6,"left_children":[1,3,5,7,9,11,-1,13,15,17,19,21,23,25,27,29,31,33,35,37,39,41,43,-1,-1,45,47,49,51,53,55,57,59,61,63,65,67,69,71,-1,73,-1,-1,-1,-1,75,77,79,81,83,85,87,89,91,93,95,97,99,101,103,105,107,109,111,113,-1,-1,-1,-1,-1,-1,-1,-1,-1,-1,-1,-1,-1,-1,-1,-1,-1,-1,-1,-1,-1,-1,-1,-1,-1,-1,-1,-1,-1,-1,-1,-1,-1,-1,-1,-1,-1,-1,-1,-1,-1,-1,-1,-1,-1,-1,-1,-1,-1,-1],"loss_changes":[1.5140037E9,3.6252058E8,3.5216845E8,6.566443E7,6.2336096E7,8.15216E7,0E0,9.987504E6,9.091101E6,9.050696E6,8.484336E6,1.0170368E7,1.0246144E7,1.322336E6,1.324168E6,1.231715E6,1.0698202E6,1.247008E6,9.66136E5,1.071104E6,6.32536E5,5.92672E5,7.05136E5,0E0,0E0,1.91216E5,1.29048E5,1.64332E5,1.56548E5,1.32572E5,1.9230825E5,1.4884583E5,1.15277E5,1.679155E5,1.23086E5,1.02826E5,9.9104E4,7.6796E4,3.77E4,0E0,1.9064E4,0E0,0E0,0E0,0E0,2.6264E4,3.604E3,6.492E3,2.126E3,8.776E3,1.2282E4,1.8276E4,1.3872E4,1.2259E4,1.601675E4,1.638875E4,2.1924312E4,3.0201766E4,1.2526375E4,1.22585E4,1.3241875E4,8.88E3,2.0427E4,3.9505E3,1.7571E4,0E0,0E0,0E0,0E0,0E0,0E0,0E0,0E0,0E0,0E0,0E0,0E0,0E0,0E0,0E0,0E0,0E0,0E0,0E0,0E0,0E0,0E0,0E0,0E0,0E0,0E0,0E0,0E0,0E0,0E0,0E0,0E0,0E0,0E0,0E0,0E0,0E0,0E0,0E0,0E0,0E0,0E0,0E0,0E0,0E0,0E0,0E0,0E0,0E0,0E0],"parents":[2147483647,0,0,1,1,2,2,3,3,4,4,5,5,7,7,8,8,9,9,10,10,11,11,12,12,13,13,14,14,15,15,16,16,17,17,18,18,19,19,20,20,21,21,22,22,25,25,26,26,27,27,28,28,29,29,30,30,31,31,32,32,33,33,34,34,35,35,36,36,37,37,38,38,40,40,45,45,46,46,47,47,48,48,49,49,50,50,51,51,52,52,53,53,54,54,55,55,56,56,57,57,58,58,59,59,60,60,61,61,62,62,63,63,64,64],"right_children":[2,4,6,8,10,12,-1,14,16,18,20,22,24,26,28,30,32,34,36,38,40,42,44,-1,-1,46,48,50,52,54,56,58,60,62,64,66,68,70,72,-1,74,-1,-1,-1,-1,76,78,80,82,84,86,88,90,92,94,96,98,100,102,104,106,108,110,112,114,-1,-1,-1,-1,-1,-1,-1,-1,-1,-1,-1,-1,-1,-1,-1,-1,-1,-1,-1,-1,-1,-1,-1,-1,-1,-1,-1,-1,-1,-1,-1,-1,-1,-1,-1,-1,-1,-1,-1,-1,-1,-1,-1,-1,-1,-1,-1,-1,-1,-1],"split_conditions":[4.66E2,1.575E2,1.295E3,8.05E1,2.76E2,7.68E2,1.2566774E2,4.95E1,1.16E2,2.125E2,3.635E2,6E2,9.685E2,3.4E1,6.5E1,9.75E1,1.365E2,1.83E2,2.435E2,3.165E2,4.04E2,5.4E2,6.75E2,5.582893E1,7.550201E1,2.55E1,4.25E1,5.7E1,7.3E1,8.85E1,1.06E2,1.27E2,1.47E2,1.68E2,1.955E2,2.255E2,2.605E2,2.955E2,3.285E2,2.006819E1,4.32E2,2.88689E1,3.3801174E1,3.9044548E1,4.550799E1,2E1,3E1,3.9E1,4.65E1,5.4E1,6.1E1,6.9E1,7.75E1,8.4E1,9.35E1,1.015E2,1.11E2,1.205E2,1.315E2,1.43E2,1.525E2,1.64E2,1.755E2,1.895E2,2.03E2,7.3077555E0,8.476002E0,9.7368765E0,1.1097527E1,1.2314035E1,1.3846748E1,1.5166986E1,1.7022528E1,2.2293818E1,2.5083693E1,-7.9019694E0,-7.4380746E0,-7.095437E0,-6.8064203E0,-6.499891E0,-6.2074833E0,-5.9516788E0,-5.6851406E0,-5.447165E0,-5.16008E0,-4.8899703E0,-4.6067863E0,-4.319927E0,-3.992632E0,-3.6772068E0,-3.3759525E0,-3.1360748E0,-2.8458498E0,-2.4944468E0,-2.1664362E0,-1.8445456E0,-1.5326129E0,-1.1503588E0,-7.7355283E-1,-4.1259056E-1,3.924063E-2,4.3250152E-1,7.758092E-1,1.2184074E0,1.61568E0,1.985416E0,2.4057353E0,2.7920425E0,3.2155144E0,3.724406E0,4.261146E0,4.7833757E0,5.2486534E0,5.736738E0,6.39725E0],"split_indices":[16,16,16,16,16,16,0,16,16,16,16,16,16,16,16,16,16,16,16,16,16,16,16,0,0,16,16,16,16,16,16,16,16,16,16,16,16,16,16,0,16,0,0,0,0,16,16,16,16,16,16,16,16,16,16,16,16,16,16,16,16,16,16,16,16,0,0,0,0,0,0,0,0,0,0,0,0,0,0,0,0,0,0,0,0,0,0,0,0,0,0,0,0,0,0,0,0,0,0,0,0,0,0,0,0,0,0,0,0,0,0,0,0,0,0],"split_type":[0,0,0,0,0,0,0,0,0,0,0,0,0,0,0,0,0,0,0,0,0,0,0,0,0,0,0,0,0,0,0,0,0,0,0,0,0,0,0,0,0,0,0,0,0,0,0,0,0,0,0,0,0,0,0,0,0,0,0,0,0,0,0,0,0,0,0,0,0,0,0,0,0,0,0,0,0,0,0,0,0,0,0,0,0,0,0,0,0,0,0,0,0,0,0,0,0,0,0,0,0,0,0,0,0,0,0,0,0,0,0,0,0,0,0],"sum_hessian":[3.9625E4,3.8381E4,1.244E3,3.1893E4,6.488E3,1.093E3,1.51E2,2.0304E4,1.1589E4,4.787E3,1.701E3,7.85E2,3.08E2,1.0539E4,9.765E3,7.096E3,4.493E3,3.062E3,1.725E3,1.083E3,6.18E2,4.47E2,3.38E2,1.5E2,1.58E2,5.402E3,5.137E3,5.229E3,4.536E3,3.69E3,3.406E3,2.631E3,1.862E3,1.658E3,1.404E3,9.34E2,7.91E2,6.18E2,4.65E2,3.07E2,3.11E2,3E2,1.47E2,1.73E2,1.65E2,2.647E3,2.755E3,2.77E3,2.367E3,2.561E3,2.668E3,2.35E3,2.186E3,1.9E3,1.79E3,1.836E3,1.57E3,1.544E3,1.087E3,9.38E2,9.24E2,7.29E2,9.29E2,6.49E2,7.55E2,4.77E2,4.57E2,4.71E2,3.2E2,3.01E2,3.17E2,1.6E2,3.05E2,1.61E2,1.5E2,8.36E2,1.811E3,1.445E3,1.31E3,1.657E3,1.113E3,1.473E3,8.94E2,1.554E3,1.007E3,1.414E3,1.254E3,1.185E3,1.165E3,1.328E3,8.58E2,8.38E2,1.062E3,1.101E3,6.89E2,1.042E3,7.94E2,7.56E2,8.14E2,6.12E2,9.32E2,4.84E2,6.03E2,6.35E2,3.03E2,5.92E2,3.32E2,4.51E2,2.78E2,4.84E2,4.45E2,3.11E2,3.38E2,4.43E2,3.12E2],"tree_param":{"num_deleted":"0","num_feature":"22","num_nodes":"115","size_leaf_vector":"1"}},{"base_weights":[4.6682328E-1,-3.1068846E1,1.1023062E3,-7.3934364E1,1.8376326E2,8.9162213E2,2.3528523E3,-1.076605E2,-1.614191E1,1.23533226E2,3.5034616E2,7.0476984E2,1.2619247E3,1.19521645E2,7.304523E1,-1.2769598E2,-8.548995E1,-3.9175716E1,1.7836552E1,9.0691826E1,1.7945076E2,2.9603113E2,4.511889E2,6.078922E2,8.03749E2,5.368877E1,7.199175E1,-1.3812093E2,-1.16646805E2,-9.511752E1,-7.2808655E1,-5.1049995E1,-2.5981014E1,3.2561853E0,3.5684006E1,7.2170815E1,1.1101537E2,1.5745403E2,2.0478757E2,2.65346E2,3.362397E2,2.0579931E1,2.4719969E1,2.8523422E1,3.22269E1,3.6997696E1,4.334321E1,-1.4525961E2,-1.3305806E2,-1.2131155E2,-1.11233536E2,-1.00487366E2,-8.866275E1,-7.747121E1,-6.6850365E1,-5.611558E1,-4.4470097E1,-3.2552032E1,-1.827184E1,-4.9605265E0,9.439703E0,2.579461E1,4.3090157E1,6.312518E1,8.127506E1,1.0345146E2,6.235547E0,7.281565E0,8.460891E0,9.421924E0,1.0782882E1,1.2438678E1,1.4012275E1,1.5412122E1,1.744864E1,-7.5857444E0,-7.1422095E0,-6.801564E0,-6.477758E0,-6.202306E0,-5.9272566E0,-5.6565304E0,-5.401082E0,-5.1809607E0,-4.8530183E0,-4.553846E0,-4.2984867E0,-4.0002284E0,-3.702882E0,-3.4466019E0,-3.2098732E0,-2.9635375E0,-2.6476057E0,-2.346512E0,-2.0549324E0,-1.7431717E0,-1.4314424E0,-1.1027496E0,-7.314101E-1,-3.962539E-1,-7.229464E-2,2.48865E-1,6.790945E-1,1.1594296E0,1.5453314E0,1.8895749E0,2.411718E0,2.8505695E0,3.3393433E0,3.787707E0,4.249571E0,4.905679E0,5.4404273E0],"categories":[],"categories_nodes":[],"categories_segments":[],"categories_sizes":[],"default_left":[0,0,0,0,0,0,0,0,0,0,0,0,0,0,0,0,0,0,0,0,0,0,0,0,0,0,0,0,0,0,0,0,0,0,0,0,0,0,0,0,0,0,0,0,0,0,0,0,0,0,0,0,0,0,0,0,0,0,0,0,0,0,0,0,0,0,0,0,0,0,0,0,0,0,0,0,0,0,0,0,0,0,0,0,0,0,0,0,0,0,0,0,0,0,0,0,0,0,0,0,0,0,0,0,0,0,0,0,0,0,0,0,0],"id":7,"left_children":[1,3,5,7,9,11,13,15,17,19,21,23,25,-1,-1,27,29,31,33,35,37,39,41,43,45,-1,-1,47,49,51,53,55,57,59,61,63,65,67,69,71,73,-1,-1,-1,-1,-1,-1,75,77,79,81,83,85,87,89,91,93,95,97,99,101,103,105,107,109,111,-1,-1,-1,-1,-1,-1,-1,-1,-1,-1,-1,-1,-1,-1,-1,-1,-1,-1,-1,-1,-1,-1,-1,-1,-1,-1,-1,-1,-1,-1,-1,-1,-1,-1,-1,-1,-1,-1,-1,-1,-1,-1,-1,-1,-1,-1,-1],"loss_changes":[1.3824184E9,3.56195E8,2.895634E8,6.2847504E7,6.4510944E7,6.4773824E7,1.83744E6,9.033824E6,9.30175E6,8.664432E6,9.221632E6,5.581152E6,9.065088E6,0E0,0E0,1.215712E6,1.17356E6,1.10842E6,1.2494719E6,1.113698E6,9.41964E5,1.284E6,8.16096E5,7.6648E4,6.06768E5,0E0,0E0,1.79344E5,1.17752E5,1.81484E5,1.10862E5,1.2173E5,1.69461E5,1.3438366E5,1.57019E5,1.235065E5,1.34094E5,1.06092E5,1.03132E5,8.7324E4,6.2836E4,0E0,0E0,0E0,0E0,0E0,0E0,1.3724E4,1.5996E4,6.336E3,2.514E3,2.2044E4,8.444E3,1.4285E4,5.742E3,1.7842E4,1.155775E4,1.542425E4,2.1001938E4,1.1824885E4,2.7824906E4,1.16328125E4,3.178525E4,1.3833E4,9.463E3,1.5633E4,0E0,0E0,0E0,0E0,0E0,0E0,0E0,0E0,0E0,0E0,0E0,0E0,0E0,0E0,0E0,0E0,0E0,0E0,0E0,0E0,0E0,0E0,0E0,0E0,0E0,0E0,0E0,0E0,0E0,0E0,0E0,0E0,0E0,0E0,0E0,0E0,0E0,0E0,0E0,0E0,0E0,0E0,0E0,0E0,0E0,0E0,0E0],"parents":[2147483647,0,0,1,1,2,2,3,3,4,4,5,5,6,6,7,7,8,8,9,9,10,10,11,11,12,12,15,15,16,16,17,17,18,18,19,19,20,20,21,21,22,22,23,23,24,24,27,27,28,28,29,29,30,30,31,31,32,32,33,33,34,34,35,35,36,36,37,37,38,38,39,39,40,40,47,47,48,48,49,49,50,50,51,51,52,52,53,53,54,54,55,55,56,56,57,57,58,58,59,59,60,60,61,61,62,62,63,63,64,64,65,65],"right_children":[2,4,6,8,10,12,14,16,18,20,22,24,26,-1,-1,28,30,32,34,36,38,40,42,44,46,-1,-1,48,50,52,54,56,58,60,62,64,66,68,70,72,74,-1,-1,-1,-1,-1,-1,76,78,80,82,84,86,88,90,92,94,96,98,100,102,104,106,108,110,112,-1,-1,-1,-1,-1,-1,-1,-1,-1,-1,-1,-1,-1,-1,-1,-1,-1,-1,-1,-1,-1,-1,-1,-1,-1,-1,-1,-1,-1,-1,-1,-1,-1,-1,-1,-1,-1,-1,-1,-1,-1,-1,-1,-1,-1,-1,-1],"split_conditions":[4.995E2,1.61E2,1.295E3,8.05E1,2.855E2,7.68E2,9.4E-1,4.95E1,1.16E2,2.165E2,3.845E2,6E2,9.685E2,1.19521645E2,7.304523E1,3.4E1,6.6E1,9.75E1,1.365E2,1.87E2,2.495E2,3.285E2,4.32E2,5.4E2,6.75E2,5.368877E1,7.199175E1,2.45E1,4.25E1,5.85E1,7.45E1,8.95E1,1.06E2,1.25E2,1.47E2,1.74E2,2.03E2,2.315E2,2.605E2,3.025E2,3.465E2,2.0579931E1,2.4719969E1,2.8523422E1,3.22269E1,3.6997696E1,4.334321E1,1.85E1,2.95E1,3.8E1,4.65E1,5.4E1,6.25E1,7.05E1,7.75E1,8.5E1,9.35E1,1.02E2,1.11E2,1.205E2,1.3E2,1.43E2,1.525E2,1.655E2,1.785E2,1.955E2,6.235547E0,7.281565E0,8.460891E0,9.421924E0,1.0782882E1,1.2438678E1,1.4012275E1,1.5412122E1,1.744864E1,-7.5857444E0,-7.1422095E0,-6.801564E0,-6.477758E0,-6.202306E0,-5.9272566E0,-5.6565304E0,-5.401082E0,-5.1809607E0,-4.8530183E0,-4.553846E0,-4.2984867E0,-4.0002284E0,-3.702882E0,-3.4466019E0,-3.2098732E0,-2.9635375E0,-2.6476057E0,-2.346512E0,-2.0549324E0,-1.7431717E0,-1.4314424E0,-1.1027496E0,-7.314101E-1,-3.962539E-1,-7.229464E-2,2.48865E-1,6.790945E-1,1.1594296E0,1.5453314E0,1.8895749E0,2.411718E0,2.8505695E0,3.3393433E0,3.787707E0,4.249571E0,4.905679E0,5.4404273E0],"split_indices":[16,16,16,16,16,16,17,16,16,16,16,16,16,0,0,16,16,16,16,16,16,16,16,16,16,0,0,16,16,16,16,16,16,16,16,16,16,16,16,16,16,0,0,0,0,0,0,16,16,16,16,16,16,16,16,16,16,16,16,16,16,16,16,16,16,16,0,0,0,0,0,0,0,0,0,0,0,0,0,0,0,0,0,0,0,0,0,0,0,0,0,0,0,0,0,0,0,0,0,0,0,0,0,0,0,0,0,0,0,0,0,0,0],"split_type":[0,0,0,0,0,0,0,0,0,0,0,0,0,0,0,0,0,0,0,0,0,0,0,0,0,0,0,0,0,0,0,0,0,0,0,0,0,0,0,0,0,0,0,0,0,0,0,0,0,0,0,0,0,0,0,0,0,0,0,0,0,0,0,0,0,0,0,0,0,0,0,0,0,0,0,0,0,0,0,0,0,0,0,0,0,0,0,0,0,0,0,0,0,0,0,0,0,0,0,0,0,0,0,0,0,0,0,0,0,0,0,0,0],"sum_hessian":[3.9783E4,3.8677E4,1.106E3,3.2244E4,6.433E3,9.48E2,1.58E2,2.0361E4,1.1883E4,4.726E3,1.707E3,6.32E2,3.16E2,1.5E2,8E0,1.0693E4,9.668E3,7.082E3,4.801E3,2.979E3,1.747E3,1.112E3,5.95E2,3.23E2,3.09E2,1.57E2,1.59E2,5.496E3,5.197E3,5.492E3,4.176E3,3.726E3,3.356E3,2.643E3,2.158E3,1.561E3,1.418E3,9.39E2,8.08E2,6.35E2,4.77E2,3.16E2,2.79E2,1.68E2,1.55E2,1.6E2,1.49E2,2.269E3,3.227E3,2.78E3,2.417E3,2.99E3,2.502E3,2.336E3,1.84E3,2.101E3,1.625E3,1.81E3,1.546E3,1.135E3,1.508E3,9.26E2,1.232E3,7.87E2,7.74E2,9.19E2,4.99E2,4.75E2,4.64E2,3.3E2,4.78E2,3.09E2,3.26E2,1.57E2,3.2E2,6.01E2,1.668E3,1.725E3,1.502E3,1.376E3,1.404E3,1.498E3,9.19E2,1.547E3,1.443E3,1.302E3,1.2E3,1.328E3,1.008E3,1.017E3,8.23E2,1.043E3,1.058E3,9.32E2,6.93E2,1.134E3,6.76E2,7.56E2,7.9E2,6.15E2,5.2E2,7.27E2,7.81E2,6.17E2,3.09E2,6.11E2,6.21E2,3.01E2,4.86E2,3.2E2,4.54E2,4.7E2,4.49E2],"tree_param":{"num_deleted":"0","num_feature":"22","num_nodes":"113","size_leaf_vector":"1"}},{"base_weights":[3.2182086E-1,-3.1818079E1,9.7715125E2,-7.1912544E1,1.5878067E2,7.9080804E2,1.1172018E2,-1.0265568E2,-1.8601192E1,1.0448395E2,3.0118317E2,6.355613E2,1.1886748E3,-1.2128812E2,-8.181443E1,-3.9212273E1,1.1865216E1,7.6700386E1,1.5436351E2,2.4609717E2,3.814275E2,5.49822E2,7.6298047E2,5.1262367E1,6.753666E1,-1.3216794E2,-1.1182355E2,-9.135284E1,-7.084026E1,-4.9795815E1,-2.6949091E1,-1.1798057E-1,2.7912495E1,5.9658176E1,9.555988E1,1.3555127E2,1.7701497E2,2.2374292E2,2.754902E2,3.481064E2,4.2916794E2,2.6025654E1,3.0511679E1,3.5118603E1,4.0958576E1,-1.3911212E2,-1.2809975E2,-1.1679655E2,-1.0641076E2,-9.616833E1,-8.589024E1,-7.6277885E1,-6.5639305E1,-5.444555E1,-4.345586E1,-3.220661E1,-1.9761011E1,-7.2876153E0,6.4249682E0,2.1144976E1,3.592497E1,5.0177483E1,6.777825E1,8.597975E1,1.0415014E2,6.2536592E0,7.265962E0,8.443031E0,9.423471E0,1.0523219E1,1.18196745E1,1.2836652E1,1.4221625E1,1.6635246E1,1.8863737E1,2.013369E1,2.2601929E1,-7.2694817E0,-6.861297E0,-6.562078E0,-6.2580657E0,-6.0109878E0,-5.722468E0,-5.434814E0,-5.170923E0,-4.9215727E0,-4.644492E0,-4.454224E0,-4.2112083E0,-3.9367466E0,-3.6829393E0,-3.3765218E0,-3.1092048E0,-2.8540013E0,-2.563959E0,-2.4110115E0,-2.1043494E0,-1.6993564E0,-1.4200584E0,-1.1697925E0,-8.4383917E-1,-5.2757394E-1,-2.0087473E-1,1.6155507E-1,5.213739E-1,8.3168525E-1,1.2259909E0,1.6228846E0,1.9497002E0,2.2787154E0,2.6728752E0,3.0721686E0,3.5770454E0,4.071008E0,4.562916E0,4.987695E0,5.4413943E0],"categories":[],"categories_nodes":[],"categories_segments":[],"categories_sizes":[],"default_left":[0,0,0,0,0,0,0,0,0,0,0,0,0,0,0,0,0,0,0,0,0,0,0,0,0,0,0,0,0,0,0,0,0,0,0,0,0,0,0,0,0,0,0,0,0,0,0,0,0,0,0,0,0,0,0,0,0,0,0,0,0,0,0,0,0,0,0,0,0,0,0,0,0,0,0,0,0,0,0,0,0,0,0,0,0,0,0,0,0,0,0,0,0,0,0,0,0,0,0,0,0,0,0,0,0,0,0,0,0,0,0,0,0,0,0,0,0],"id":8,"left_children":[1,3,5,7,9,11,-1,13,15,17,19,21,23,25,27,29,31,33,35,37,39,41,43,-1,-1,45,47,49,51,53,55,57,59,61,63,65,67,69,71,73,75,-1,-1,-1,-1,77,79,81,83,85,87,89,91,93,95,97,99,101,103,105,107,109,111,113,115,-1,-1,-1,-1,-1,-1,-1,-1,-1,-1,-1,-1,-1,-1,-1,-1,-1,-1,-1,-1,-1,-1,-1,-1,-1,-1,-1,-1,-1,-1,-1,-1,-1,-1,-1,-1,-1,-1,-1,-1,-1,-1,-1,-1,-1,-1,-1,-1,-1,-1,-1,-1],"loss_changes":[1.2487438E9,2.9428784E8,2.9506624E8,5.214317E7,5.1718736E7,6.749773E7,0E0,7.826048E6,7.3084945E6,6.705284E6,8.070496E6,8.287584E6,6.798944E6,1.082096E6,9.9088E5,8.99647E5,9.0322556E5,9.95484E5,7.1448E5,6.59812E5,1.043672E6,5.32272E5,5.07632E5,0E0,0E0,1.22032E5,1.4108E5,1.25736E5,1.20418E5,1.07444E5,1.2097675E5,1.2623621E5,1.08123375E5,1.227755E5,1.12598E5,7.916E4,4.1312E4,5.5906E4,5.812E3,7.5288E4,2.184E3,0E0,0E0,0E0,0E0,1.564E3,1.2504E4,1.0044E4,7.512E3,1.0884E4,5.248E3,8.114E3,1.066E4,1.49655E4,8.28125E3,1.1617125E4,1.3884E4,1.3662031E4,1.7952668E4,1.62024375E4,8.502875E3,9.038625E3,1.657975E4,9.5135E3,5.06E3,0E0,0E0,0E0,0E0,0E0,0E0,0E0,0E0,0E0,0E0,0E0,0E0,0E0,0E0,0E0,0E0,0E0,0E0,0E0,0E0,0E0,0E0,0E0,0E0,0E0,0E0,0E0,0E0,0E0,0E0,0E0,0E0,0E0,0E0,0E0,0E0,0E0,0E0,0E0,0E0,0E0,0E0,0E0,0E0,0E0,0E0,0E0,0E0,0E0,0E0,0E0,0E0],"parents":[2147483647,0,0,1,1,2,2,3,3,4,4,5,5,7,7,8,8,9,9,10,10,11,11,12,12,13,13,14,14,15,15,16,16,17,17,18,18,19,19,20,20,21,21,22,22,25,25,26,26,27,27,28,28,29,29,30,30,31,31,32,32,33,33,34,34,35,35,36,36,37,37,38,38,39,39,40,40,45,45,46,46,47,47,48,48,49,49,50,50,51,51,52,52,53,53,54,54,55,55,56,56,57,57,58,58,59,59,60,60,61,61,62,62,63,63,64,64],"right_children":[2,4,6,8,10,12,-1,14,16,18,20,22,24,26,28,30,32,34,36,38,40,42,44,-1,-1,46,48,50,52,54,56,58,60,62,64,66,68,70,72,74,76,-1,-1,-1,-1,78,80,82,84,86,88,90,92,94,96,98,100,102,104,106,108,110,112,114,116,-1,-1,-1,-1,-1,-1,-1,-1,-1,-1,-1,-1,-1,-1,-1,-1,-1,-1,-1,-1,-1,-1,-1,-1,-1,-1,-1,-1,-1,-1,-1,-1,-1,-1,-1,-1,-1,-1,-1,-1,-1,-1,-1,-1,-1,-1,-1,-1,-1,-1,-1,-1],"split_conditions":[4.66E2,1.55E2,1.295E3,8E1,2.69E2,7.68E2,1.1172018E2,4.95E1,1.135E2,2.075E2,3.465E2,6E2,9.685E2,3.25E1,6.45E1,9.6E1,1.335E2,1.8E2,2.375E2,3.025E2,4.04E2,5.4E2,6.75E2,5.1262367E1,6.753666E1,2.3E1,4.1E1,5.75E1,7.2E1,8.85E1,1.05E2,1.235E2,1.45E2,1.655E2,1.925E2,2.22E2,2.53E2,2.855E2,3.165E2,3.845E2,4.32E2,2.6025654E1,3.0511679E1,3.5118603E1,4.0958576E1,1.75E1,2.75E1,3.6E1,4.55E1,5.4E1,6E1,6.8E1,7.65E1,8.45E1,5E-2,1.015E2,1.09E2,1.185E2,1.285E2,1.38E2,1.5E2,1.59E2,1.71E2,1.87E2,2E2,6.2536592E0,7.265962E0,8.443031E0,9.423471E0,1.0523219E1,1.18196745E1,1.2836652E1,1.4221625E1,1.6635246E1,1.8863737E1,2.013369E1,2.2601929E1,-7.2694817E0,-6.861297E0,-6.562078E0,-6.2580657E0,-6.0109878E0,-5.722468E0,-5.434814E0,-5.170923E0,-4.9215727E0,-4.644492E0,-4.454224E0,-4.2112083E0,-3.9367466E0,-3.6829393E0,-3.3765218E0,-3.1092048E0,-2.8540013E0,-2.563959E0,-2.4110115E0,-2.1043494E0,-1.6993564E0,-1.4200584E0,-1.1697925E0,-8.4383917E-1,-5.2757394E-1,-2.0087473E-1,1.6155507E-1,5.213739E-1,8.3168525E-1,1.2259909E0,1.6228846E0,1.9497002E0,2.2787154E0,2.6728752E0,3.0721686E0,3.5770454E0,4.071008E0,4.562916E0,4.987695E0,5.4413943E0],"split_indices":[16,16,16,16,16,16,0,16,16,16,16,16,16,16,16,16,16,16,16,16,16,16,16,0,0,16,16,16,16,16,16,16,16,16,16,16,16,16,16,16,16,0,0,0,0,16,16,16,16,16,16,16,16,16,17,16,16,16,16,16,16,16,16,16,16,0,0,0,0,0,0,0,0,0,0,0,0,0,0,0,0,0,0,0,0,0,0,0,0,0,0,0,0,0,0,0,0,0,0,0,0,0,0,0,0,0,0,0,0,0,0,0,0,0,0,0,0],"split_type":[0,0,0,0,0,0,0,0,0,0,0,0,0,0,0,0,0,0,0,0,0,0,0,0,0,0,0,0,0,0,0,0,0,0,0,0,0,0,0,0,0,0,0,0,0,0,0,0,0,0,0,0,0,0,0,0,0,0,0,0,0,0,0,0,0,0,0,0,0,0,0,0,0,0,0,0,0,0,0,0,0,0,0,0,0,0,0,0,0,0,0,0,0,0,0,0,0,0,0,0,0,0,0,0,0,0,0,0,0,0,0,0,0,0,0,0,0],"sum_hessian":[3.9773E4,3.8507E4,1.266E3,3.1815E4,6.692E3,1.104E3,1.62E2,2.0178E4,1.1637E4,4.846E3,1.846E3,7.96E2,3.08E2,1.0651E4,9.527E3,6.941E3,4.696E3,3.114E3,1.732E3,1.097E3,7.49E2,4.79E2,3.17E2,1.57E2,1.51E2,4.949E3,5.702E3,5.093E3,4.434E3,3.724E3,3.217E3,2.689E3,2.007E3,1.638E3,1.476E3,9.5E2,7.82E2,6.28E2,4.69E2,4.46E2,3.03E2,3.29E2,1.5E2,1.59E2,1.58E2,1.816E3,3.133E3,2.961E3,2.741E3,2.698E3,2.395E3,2.161E3,2.273E3,2.144E3,1.58E3,1.856E3,1.361E3,1.283E3,1.406E3,1.09E3,9.17E2,7.59E2,8.79E2,7.03E2,7.73E2,4.65E2,4.85E2,4.66E2,3.16E2,3.15E2,3.13E2,1.61E2,3.08E2,3E2,1.46E2,1.49E2,1.54E2,4.02E2,1.414E3,1.493E3,1.64E3,1.184E3,1.777E3,1.534E3,1.207E3,1.579E3,1.119E3,8.03E2,1.592E3,1.1E3,1.061E3,1.457E3,8.16E2,1.161E3,9.83E2,3.45E2,1.235E3,1.259E3,5.97E2,5.99E2,7.62E2,6.41E2,6.42E2,7.83E2,6.23E2,4.69E2,6.21E2,4.36E2,4.81E2,3.22E2,4.37E2,3.34E2,5.45E2,3.86E2,3.17E2,4.1E2,3.63E2],"tree_param":{"num_deleted":"0","num_feature":"22","num_nodes":"117","size_leaf_vector":"1"}},{"base_weights":[5.406049E-1,-2.8784191E1,9.97738E2,-6.670314E1,1.6568945E2,7.996818E2,1.0716677E2,-9.715257E1,-1.463004E1,1.1142982E2,3.182048E2,6.3689185E2,1.135095E3,-1.1526048E2,-7.730251E1,-3.531632E1,1.5913353E1,8.1749466E1,1.6179602E2,2.6689557E2,4.089256E2,5.495473E2,7.215124E2,4.867236E1,6.442936E1,-1.2566851E2,-1.0617476E2,-8.622296E1,-6.606117E1,-4.6105892E1,-2.3387272E1,3.047545E0,3.178116E1,6.501843E1,1.0015016E2,1.4226337E2,1.8516818E2,2.3971783E2,3.0334518E2,1.8562256E1,2.2383419E1,2.5913755E1,2.9086216E1,3.3468975E1,3.883731E1,-1.3198933E2,-1.214422E2,-1.1063463E2,-1.005682E2,-9.101759E1,-8.060664E1,-7.051865E1,-6.0659344E1,-5.073532E1,-4.012963E1,-2.8882198E1,-1.5743017E1,-3.3819587E0,9.705574E0,2.3151003E1,3.8684692E1,5.6981724E1,7.3256165E1,9.37346E1,5.6163063E0,6.5736213E0,7.6594934E0,8.761498E0,1.0006819E1,1.1232877E1,1.2678576E1,1.3904427E1,1.5735908E1,-6.9230075E0,-6.5041633E0,-6.1984286E0,-5.926847E0,-5.6671906E0,-5.380571E0,-5.1558337E0,-4.8567576E0,-4.7017226E0,-4.4169955E0,-4.0988827E0,-3.7634683E0,-3.583098E0,-3.225528E0,-3.090404E0,-2.7402475E0,-2.6559625E0,-2.3605058E0,-2.1224012E0,-1.8428574E0,-1.5700253E0,-1.2664375E0,-9.596314E-1,-6.5369064E-1,-3.2370612E-1,3.15771E-2,3.147299E-1,6.6636026E-1,9.8417854E-1,1.3105551E0,1.705613E0,2.1669405E0,2.6611233E0,3.097721E0,3.417806E0,3.8328831E0,4.429155E0,4.9297633E0],"categories":[],"categories_nodes":[],"categories_segments":[],"categories_sizes":[],"default_left":[0,0,0,0,0,0,0,0,0,0,0,0,0,0,0,0,0,0,0,0,0,0,0,0,0,0,0,0,0,0,0,0,0,0,0,0,0,0,0,0,0,0,0,0,0,0,0,0,0,0,0,0,0,0,0,0,0,0,0,0,0,0,0,0,0,0,0,0,0,0,0,0,0,0,0,0,0,0,0,0,0,0,0,0,0,0,0,0,0,0,0,0,0,0,0,0,0,0,0,0,0,0,0,0,0,0,0,0,0,0,0],"id":9,"left_children":[1,3,5,7,9,11,-1,13,15,17,19,21,23,25,27,29,31,33,35,37,39,41,43,-1,-1,45,47,49,51,53,55,57,59,61,63,65,67,69,71,-1,-1,-1,-1,-1,-1,73,75,77,79,81,83,85,87,89,91,93,95,97,99,101,103,105,107,109,-1,-1,-1,-1,-1,-1,-1,-1,-1,-1,-1,-1,-1,-1,-1,-1,-1,-1,-1,-1,-1,-1,-1,-1,-1,-1,-1,-1,-1,-1,-1,-1,-1,-1,-1,-1,-1,-1,-1,-1,-1,-1,-1,-1,-1,-1,-1],"loss_changes":[1.1638845E9,2.8512848E8,2.5626304E8,5.1302144E7,5.2174224E7,5.229549E7,0E0,7.32984E6,7.544601E6,6.945472E6,7.594576E6,4.45208E6,6.586112E6,9.96128E5,9.71316E5,9.15203E5,9.843249E5,8.95834E5,7.61152E5,9.77336E5,7.03864E5,2.7552E4,4.30304E5,0E0,0E0,1.16744E5,1.31548E5,1.38856E5,9.9622E4,1.013545E5,1.41647E5,1.1407286E5,1.277345E5,9.76485E4,9.8365E4,9.1164E4,8.1256E4,7.072E4,4.1448E4,0E0,0E0,0E0,0E0,0E0,0E0,6.412E3,7.256E3,1.3752E4,1.2198E4,1.5292E4,1.2188E4,1.1575E4,9.781E3,1.5157E4,1.084725E4,1.680675E4,1.2796406E4,1.6832588E4,1.608657E4,9.691531E3,2.401575E4,1.134E4,7.36075E3,1.42775E4,0E0,0E0,0E0,0E0,0E0,0E0,0E0,0E0,0E0,0E0,0E0,0E0,0E0,0E0,0E0,0E0,0E0,0E0,0E0,0E0,0E0,0E0,0E0,0E0,0E0,0E0,0E0,0E0,0E0,0E0,0E0,0E0,0E0,0E0,0E0,0E0,0E0,0E0,0E0,0E0,0E0,0E0,0E0,0E0,0E0,0E0,0E0],"parents":[2147483647,0,0,1,1,2,2,3,3,4,4,5,5,7,7,8,8,9,9,10,10,11,11,12,12,13,13,14,14,15,15,16,16,17,17,18,18,19,19,20,20,21,21,22,22,25,25,26,26,27,27,28,28,29,29,30,30,31,31,32,32,33,33,34,34,35,35,36,36,37,37,38,38,45,45,46,46,47,47,48,48,49,49,50,50,51,51,52,52,53,53,54,54,55,55,56,56,57,57,58,58,59,59,60,60,61,61,62,62,63,63],"right_children":[2,4,6,8,10,12,-1,14,16,18,20,22,24,26,28,30,32,34,36,38,40,42,44,-1,-1,46,48,50,52,54,56,58,60,62,64,66,68,70,72,-1,-1,-1,-1,-1,-1,74,76,78,80,82,84,86,88,90,92,94,96,98,100,102,104,106,108,110,-1,-1,-1,-1,-1,-1,-1,-1,-1,-1,-1,-1,-1,-1,-1,-1,-1,-1,-1,-1,-1,-1,-1,-1,-1,-1,-1,-1,-1,-1,-1,-1,-1,-1,-1,-1,-1,-1,-1,-1,-1,-1,-1,-1,-1,-1,-1],"split_conditions":[4.995E2,1.61E2,1.295E3,8.05E1,2.855E2,7.68E2,1.0716677E2,4.95E1,1.16E2,2.165E2,3.845E2,6E2,9.685E2,3.25E1,6.55E1,9.75E1,1.365E2,1.87E2,2.495E2,3.285E2,4.32E2,5.4E2,6.75E2,4.867236E1,6.442936E1,2.35E1,4.2E1,5.8E1,7.4E1,8.95E1,1.07E2,1.255E2,1.47E2,1.74E2,2.03E2,2.315E2,2.69E2,3.025E2,3.465E2,1.8562256E1,2.2383419E1,2.5913755E1,2.9086216E1,3.3468975E1,3.883731E1,1.75E1,2.8E1,3.75E1,2E0,5.3E1,2E0,2E0,2E0,8.55E1,9.35E1,1.02E2,1.11E2,1.22E2,1.315E2,1.41E2,1.525E2,1.68E2,1.785E2,1.955E2,5.6163063E0,6.5736213E0,7.6594934E0,8.761498E0,1.0006819E1,1.1232877E1,1.2678576E1,1.3904427E1,1.5735908E1,-6.9230075E0,-6.5041633E0,-6.1984286E0,-5.926847E0,-5.6671906E0,-5.380571E0,-5.1558337E0,-4.8567576E0,-4.7017226E0,-4.4169955E0,-4.0988827E0,-3.7634683E0,-3.583098E0,-3.225528E0,-3.090404E0,-2.7402475E0,-2.6559625E0,-2.3605058E0,-2.1224012E0,-1.8428574E0,-1.5700253E0,-1.2664375E0,-9.596314E-1,-6.5369064E-1,-3.2370612E-1,3.15771E-2,3.147299E-1,6.6636026E-1,9.8417854E-1,1.3105551E0,1.705613E0,2.1669405E0,2.6611233E0,3.097721E0,3.417806E0,3.8328831E0,4.429155E0,4.9297633E0],"split_indices":[16,16,16,16,16,16,0,16,16,16,16,16,16,16,16,16,16,16,16,16,16,16,16,0,0,16,16,16,16,16,16,16,16,16,16,16,16,16,16,0,0,0,0,0,0,16,16,16,20,16,20,20,20,16,16,16,16,16,16,16,16,16,16,16,0,0,0,0,0,0,0,0,0,0,0,0,0,0,0,0,0,0,0,0,0,0,0,0,0,0,0,0,0,0,0,0,0,0,0,0,0,0,0,0,0,0,0,0,0,0,0],"split_type":[0,0,0,0,0,0,0,0,0,0,0,0,0,0,0,0,0,0,0,0,0,0,0,0,0,0,0,0,0,0,0,0,0,0,0,0,0,0,0,0,0,0,0,0,0,0,0,0,0,0,0,0,0,0,0,0,0,0,0,0,0,0,0,0,0,0,0,0,0,0,0,0,0,0,0,0,0,0,0,0,0,0,0,0,0,0,0,0,0,0,0,0,0,0,0,0,0,0,0,0,0,0,0,0,0,0,0,0,0,0,0],"sum_hessian":[3.9799E4,3.8663E4,1.136E3,3.2355E4,6.308E3,9.7E2,1.66E2,2.0416E4,1.1939E4,4.654E3,1.654E3,6.55E2,3.15E2,1.0674E4,9.742E3,7.118E3,4.821E3,2.93E3,1.724E3,1.059E3,5.95E2,3.26E2,3.29E2,1.57E2,1.58E2,4.969E3,5.705E3,5.428E3,4.314E3,3.736E3,3.382E3,2.663E3,2.158E3,1.537E3,1.393E3,9.43E2,7.81E2,6.11E2,4.48E2,3.07E2,2.88E2,1.74E2,1.52E2,1.76E2,1.53E2,1.979E3,2.99E3,3.167E3,2.538E3,2.92E3,2.508E3,2.357E3,1.957E3,2.101E3,1.635E3,1.966E3,1.416E3,1.355E3,1.308E3,9.61E2,1.197E3,7.82E2,7.55E2,9.18E2,4.75E2,4.81E2,4.62E2,4.77E2,3.04E2,3.01E2,3.1E2,1.47E2,3.01E2,4.34E2,1.545E3,1.577E3,1.413E3,1.651E3,1.516E3,1.44E3,1.098E3,1.357E3,1.563E3,1.984E3,5.24E2,1.971E3,3.86E2,1.628E3,3.29E2,1.245E3,8.56E2,9.5E2,6.85E2,1.146E3,8.2E2,6.15E2,8.01E2,7.65E2,5.9E2,6.75E2,6.33E2,4.54E2,5.07E2,6.08E2,5.89E2,4.52E2,3.3E2,3.18E2,4.37E2,4.55E2,4.63E2],"tree_param":{"num_deleted":"0","num_feature":"22","num_nodes":"111","size_leaf_vector":"1"}},{"base_weights":[8.144697E-1,-2.8476543E1,8.907281E2,-6.43406E1,1.4675092E2,6.38504E2,1.6367012E3,-9.294373E1,-1.6488405E1,9.634129E1,2.726019E2,5.38507E2,8.3742346E2,6.1975628E1,2.01879E3,-1.10744125E2,-7.551683E1,-3.5823067E1,1.1693128E1,7.089529E1,1.3977408E2,2.312024E2,3.5670996E2,2.363578E1,5.9940247E2,3.709955E1,4.593065E1,1.0245432E2,6.3971973E1,-1.200862E2,-1.0290198E2,-8.507515E1,-6.579457E1,-4.5381767E1,-2.4330795E1,-2.378194E-1,2.6361897E1,5.741898E1,8.900061E1,1.2227473E2,1.5993044E2,2.0868109E2,2.6745053E2,1.6338736E1,3.8695294E2,2.7648117E1,3.18263E1,-6.335109E0,-1.1691323E2,-1.07438126E2,-9.860837E1,-8.9482834E1,-8.0344795E1,-7.0885994E1,-5.999641E1,-5.0340324E1,-4.013841E1,-2.9159063E1,-1.7766895E1,-6.193392E0,6.1650662E0,1.9015457E1,3.3630516E1,5.0101482E1,6.658939E1,8.19856E1,4.7844086E0,5.6547565E0,6.5566072E0,7.63128E0,8.522685E0,9.519434E0,1.1022765E1,1.2366547E1,1.3850631E1,1.8141071E1,2.0388338E1,-5.961654E0,-5.702058E0,-5.483232E0,-5.265164E0,-5.0317097E0,-4.7989883E0,-4.5729423E0,-4.3286595E0,-4.120813E0,-3.889159E0,-3.660354E0,-3.4065118E0,-3.0867586E0,-2.8210952E0,-2.7598073E0,-2.4459476E0,-2.1388738E0,-1.8670657E0,-1.5589274E0,-1.3037676E0,-1.0525942E0,-7.5203794E-1,-4.4942075E-1,-1.2994002E-1,1.8748479E-1,5.1627266E-1,8.040972E-1,1.1434671E0,1.5148517E0,1.8853981E0,2.2781262E0,2.7224882E0,3.188027E0,3.5488358E0,3.9113216E0,4.268258E0],"categories":[],"categories_nodes":[],"categories_segments":[],"categories_sizes":[],"default_left":[0,0,0,0,0,0,0,0,0,0,0,0,0,0,0,0,0,0,0,0,0,0,0,0,0,0,0,0,0,0,0,0,0,0,0,0,0,0,0,0,0,0,0,0,0,0,0,0,0,0,0,0,0,0,0,0,0,0,0,0,0,0,0,0,0,0,0,0,0,0,0,0,0,0,0,0,0,0,0,0,0,0,0,0,0,0,0,0,0,0,0,0,0,0,0,0,0,0,0,0,0,0,0,0,0,0,0,0,0,0,0,0,0],"id":10,"left_children":[1,3,5,7,9,11,13,15,17,19,21,23,25,-1,27,29,31,33,35,37,39,41,43,-1,45,-1,-1,-1,-1,47,49,51,53,55,57,59,61,63,65,67,69,71,73,-1,75,-1,-1,-1,77,79,81,83,85,87,89,91,93,95,97,99,101,103,105,107,109,111,-1,-1,-1,-1,-1,-1,-1,-1,-1,-1,-1,-1,-1,-1,-1,-1,-1,-1,-1,-1,-1,-1,-1,-1,-1,-1,-1,-1,-1,-1,-1,-1,-1,-1,-1,-1,-1,-1,-1,-1,-1,-1,-1,-1,-1,-1,-1],"loss_changes":[1.0347861E9,2.4153656E8,2.3696768E8,4.366619E7,4.1400704E7,1.8386144E7,4.590963E7,6.185824E6,6.504656E6,5.1447E6,6.41848E6,2.252704E6,1.759056E6,0E0,9.8464E5,7.11184E5,9.32328E5,7.76642E5,8.502161E5,7.1296E5,5.87836E5,9.67904E5,4.29424E5,0E0,2.08336E5,0E0,0E0,0E0,0E0,7.9676E4,9.4112E4,9.8856E4,1.43588E5,9.8442E4,1.01436E5,1.0223422E5,1.1571575E5,1.100705E5,5.0985E4,6.0459E4,3.5248E4,1.25592E5,2.3252E4,0E0,2.736E3,0E0,0E0,0E0,6.756E3,8.22E2,5.112E3,7.168E3,6.658E3,1.2033E4,1.1111E4,1.09795E4,1.230225E4,1.0720375E4,1.19163125E4,1.3931875E4,1.294443E4,1.1909906E4,1.372725E4,1.61505E4,4.7455E3,1.186E3,0E0,0E0,0E0,0E0,0E0,0E0,0E0,0E0,0E0,0E0,0E0,0E0,0E0,0E0,0E0,0E0,0E0,0E0,0E0,0E0,0E0,0E0,0E0,0E0,0E0,0E0,0E0,0E0,0E0,0E0,0E0,0E0,0E0,0E0,0E0,0E0,0E0,0E0,0E0,0E0,0E0,0E0,0E0,0E0,0E0,0E0,0E0],"parents":[2147483647,0,0,1,1,2,2,3,3,4,4,5,5,6,6,7,7,8,8,9,9,10,10,11,11,12,12,14,14,15,15,16,16,17,17,18,18,19,19,20,20,21,21,22,22,24,24,29,29,30,30,31,31,32,32,33,33,34,34,35,35,36,36,37,37,38,38,39,39,40,40,41,41,42,42,44,44,48,48,49,49,50,50,51,51,52,52,53,53,54,54,55,55,56,56,57,57,58,58,59,59,60,60,61,61,62,62,63,63,64,64,65,65],"right_children":[2,4,6,8,10,12,14,16,18,20,22,24,26,-1,28,30,32,34,36,38,40,42,44,-1,46,-1,-1,-1,-1,48,50,52,54,56,58,60,62,64,66,68,70,72,74,-1,76,-1,-1,-1,78,80,82,84,86,88,90,92,94,96,98,100,102,104,106,108,110,112,-1,-1,-1,-1,-1,-1,-1,-1,-1,-1,-1,-1,-1,-1,-1,-1,-1,-1,-1,-1,-1,-1,-1,-1,-1,-1,-1,-1,-1,-1,-1,-1,-1,-1,-1,-1,-1,-1,-1,-1,-1,-1,-1,-1,-1,-1,-1],"split_conditions":[4.66E2,1.575E2,9.685E2,7.95E1,2.69E2,6.75E2,1.295E3,4.7E1,1.135E2,2.075E2,3.635E2,5.4E2,7.68E2,6.1975628E1,9.4E-1,3.1E1,6.25E1,9.6E1,1.335E2,1.83E2,2.375E2,3.165E2,4.04E2,2.363578E1,6E2,3.709955E1,4.593065E1,1.0245432E2,6.3971973E1,2.2E1,3.9E1,5.5E1,7.1E1,8.75E1,1.05E2,1.245E2,1.45E2,1.71E2,1.955E2,2.22E2,2.53E2,2.855E2,3.285E2,1.6338736E1,4.32E2,2.7648117E1,3.18263E1,-6.335109E0,2.7E1,3.5E1,4.35E1,5.1E1,5.9E1,6.7E1,7.6E1,5E-2,9.1E1,1.005E2,1.09E2,1.195E2,1.3E2,1.4E2,1.505E2,1.64E2,1.785E2,1.895E2,4.7844086E0,5.6547565E0,6.5566072E0,7.63128E0,8.522685E0,9.519434E0,1.1022765E1,1.2366547E1,1.3850631E1,1.8141071E1,2.0388338E1,-5.961654E0,-5.702058E0,-5.483232E0,-5.265164E0,-5.0317097E0,-4.7989883E0,-4.5729423E0,-4.3286595E0,-4.120813E0,-3.889159E0,-3.660354E0,-3.4065118E0,-3.0867586E0,-2.8210952E0,-2.7598073E0,-2.4459476E0,-2.1388738E0,-1.8670657E0,-1.5589274E0,-1.3037676E0,-1.0525942E0,-7.5203794E-1,-4.4942075E-1,-1.2994002E-1,1.8748479E-1,5.1627266E-1,8.040972E-1,1.1434671E0,1.5148517E0,1.8853981E0,2.2781262E0,2.7224882E0,3.188027E0,3.5488358E0,3.9113216E0,4.268258E0],"split_indices":[16,16,16,16,16,16,16,16,16,16,16,16,16,0,17,16,16,16,16,16,16,16,16,0,16,0,0,0,0,16,16,16,16,16,16,16,16,16,16,16,16,16,16,0,16,0,0,0,16,16,16,16,16,16,16,17,16,16,16,16,16,16,16,16,16,16,0,0,0,0,0,0,0,0,0,0,0,0,0,0,0,0,0,0,0,0,0,0,0,0,0,0,0,0,0,0,0,0,0,0,0,0,0,0,0,0,0,0,0,0,0,0,0],"split_type":[0,0,0,0,0,0,0,0,0,0,0,0,0,0,0,0,0,0,0,0,0,0,0,0,0,0,0,0,0,0,0,0,0,0,0,0,0,0,0,0,0,0,0,0,0,0,0,0,0,0,0,0,0,0,0,0,0,0,0,0,0,0,0,0,0,0,0,0,0,0,0,0,0,0,0,0,0,0,0,0,0,0,0,0,0,0,0,0,0,0,0,0,0,0,0,0,0,0,0,0,0,0,0,0,0,0,0,0,0,0,0,0,0],"sum_hessian":[3.9696E4,3.8432E4,1.264E3,3.1903E4,6.529E3,9.46E2,3.18E2,1.9967E4,1.1936E4,4.663E3,1.866E3,6.32E2,3.14E2,1.58E2,1.6E2,9.875E3,1.0092E4,7.079E3,4.857E3,2.942E3,1.721E3,1.253E3,6.13E2,3.08E2,3.24E2,1.49E2,1.65E2,1.52E2,8E0,4.5E3,5.375E3,5.085E3,5.007E3,3.863E3,3.216E3,2.679E3,2.178E3,1.689E3,1.253E3,9.25E2,7.96E2,7.77E2,4.76E2,3.14E2,2.99E2,1.51E2,1.73E2,1.446E3,3.054E3,2.602E3,2.773E3,2.623E3,2.462E3,2.66E3,2.347E3,1.981E3,1.882E3,1.851E3,1.365E3,1.388E3,1.291E3,1.085E3,1.093E3,9.43E2,7.46E2,6.18E2,6.35E2,4.61E2,4.64E2,4.79E2,3.17E2,3.11E2,4.66E2,1.62E2,3.14E2,1.47E2,1.52E2,1.667E3,1.387E3,1.249E3,1.353E3,1.545E3,1.228E3,1.544E3,1.079E3,1.344E3,1.118E3,1.43E3,1.23E3,1.568E3,7.79E2,4.4E2,1.541E3,9.61E2,9.21E2,1.113E3,7.38E2,6.16E2,7.49E2,7.8E2,6.08E2,8.18E2,4.73E2,6.19E2,4.66E2,6.06E2,4.87E2,4.67E2,4.76E2,4.63E2,2.83E2,3.04E2,3.14E2],"tree_param":{"num_deleted":"0","num_feature":"22","num_nodes":"113","size_leaf_vector":"1"}},{"base_weights":[-1.5916494E-3,-2.7146025E1,8.403576E2,-6.1763306E1,1.3618362E2,6.0752826E2,1.5444508E3,-8.8971725E1,-1.7461405E1,8.910873E1,2.584345E2,5.1073392E2,7.9550085E2,5.835664E1,9.510969E1,-1.0510583E2,-7.225001E1,-3.5720505E1,8.920112E0,6.543432E1,1.3214508E2,2.1180385E2,3.2553238E2,2.247287E1,5.6787335E2,3.5380177E1,4.4083424E1,-1.138477E2,-9.7445145E1,-8.017028E1,-6.259256E1,-4.5097332E1,-2.5301104E1,-1.1277292E0,2.3855425E1,5.094629E1,8.192174E1,1.16362495E2,1.5149576E2,1.9218875E2,2.369145E2,2.9828326E2,1.837118E1,2.6259953E1,3.018719E1,-1.1992886E2,-1.1063654E2,-1.0162614E2,-9.337483E1,-8.4849724E1,-7.593771E1,-6.682026E1,-5.7701813E1,-4.9435463E1,-4.0354195E1,-2.9730349E1,-1.9194635E1,-7.4101715E0,5.583452E0,1.806219E1,3.0801395E1,4.426299E1,5.945492E1,7.361785E1,8.943157E1,5.3918743E0,6.2242618E0,7.2058787E0,8.090866E0,9.014936E0,1.0132079E1,1.10337515E1,1.2222122E1,1.4230838E1,1.618521E1,-6.3274074E0,-5.9214687E0,-5.6381946E0,-5.3939576E0,-5.3135123E0,-4.986204E0,-4.802788E0,-4.51522E0,-4.356309E0,-4.038348E0,-3.8682919E0,-3.564905E0,-3.3981595E0,-3.0570772E0,-2.9408042E0,-2.59401E0,-2.5174775E0,-2.1566858E0,-2.250247E0,-1.9510396E0,-1.6311187E0,-1.3697073E0,-1.1231836E0,-8.2907915E-1,-5.074096E-1,-1.7182466E-1,1.0180944E-1,4.1044432E-1,7.247032E-1,1.0404847E0,1.3975813E0,1.663757E0,2.0258107E0,2.4013748E0,2.785361E0,3.1352456E0,3.4724731E0,3.9196823E0,4.285525E0,4.6750083E0],"categories":[],"categories_nodes":[],"categories_segments":[],"categories_sizes":[],"default_left":[0,0,0,0,0,0,0,0,0,0,0,0,0,0,0,0,0,0,0,0,0,0,0,0,0,0,0,0,0,0,0,0,0,0,0,0,0,0,0,0,0,0,0,0,0,0,0,0,0,0,0,0,0,0,0,0,0,0,0,0,0,0,0,0,0,0,0,0,0,0,0,0,0,0,0,0,0,0,0,0,0,0,0,0,0,0,0,0,0,0,0,0,0,0,0,0,0,0,0,0,0,0,0,0,0,0,0,0,0,0,0,0,0,0,0],"id":11,"left_children":[1,3,5,7,9,11,13,15,17,19,21,23,25,-1,-1,27,29,31,33,35,37,39,41,-1,43,-1,-1,45,47,49,51,53,55,57,59,61,63,65,67,69,71,73,-1,-1,-1,75,77,79,81,83,85,87,89,91,93,95,97,99,101,103,105,107,109,111,113,-1,-1,-1,-1,-1,-1,-1,-1,-1,-1,-1,-1,-1,-1,-1,-1,-1,-1,-1,-1,-1,-1,-1,-1,-1,-1,-1,-1,-1,-1,-1,-1,-1,-1,-1,-1,-1,-1,-1,-1,-1,-1,-1,-1,-1,-1,-1,-1,-1,-1],"loss_changes":[9.025202E8,2.1671037E8,2.0201152E8,3.8118736E7,3.8552376E7,1.6551168E7,3.9219584E7,5.278128E6,5.79713E6,4.923652E6,5.76004E6,1.908576E6,1.761904E6,0E0,0E0,6.5652E5,7.31116E5,6.93708E5,7.3881E5,7.42297E5,5.06748E5,4.9726E5,7.60224E5,0E0,1.66632E5,0E0,0E0,7.7532E4,8.1044E4,9.8212E4,8.5902E4,7.50015E4,9.0605E4,1.241681E5,7.911825E4,9.21065E4,8.4463E4,5.2359E4,3.5166E4,4.1016E4,4.614E3,7.0112E4,0E0,0E0,0E0,8.46E2,5.764E3,1.2482E4,1.3618E4,1.6206E4,1.293E4,1.0915E4,1.0052E4,9.061E3,9.3625E3,1.229475E4,1.1757406E4,1.6513617E4,1.3245145E4,1.03056875E4,5.4075E3,1.1270375E4,5.3985E3,8.47075E3,3.522E3,0E0,0E0,0E0,0E0,0E0,0E0,0E0,0E0,0E0,0E0,0E0,0E0,0E0,0E0,0E0,0E0,0E0,0E0,0E0,0E0,0E0,0E0,0E0,0E0,0E0,0E0,0E0,0E0,0E0,0E0,0E0,0E0,0E0,0E0,0E0,0E0,0E0,0E0,0E0,0E0,0E0,0E0,0E0,0E0,0E0,0E0,0E0,0E0,0E0,0E0],"parents":[2147483647,0,0,1,1,2,2,3,3,4,4,5,5,6,6,7,7,8,8,9,9,10,10,11,11,12,12,15,15,16,16,17,17,18,18,19,19,20,20,21,21,22,22,24,24,27,27,28,28,29,29,30,30,31,31,32,32,33,33,34,34,35,35,36,36,37,37,38,38,39,39,40,40,41,41,45,45,46,46,47,47,48,48,49,49,50,50,51,51,52,52,53,53,54,54,55,55,56,56,57,57,58,58,59,59,60,60,61,61,62,62,63,63,64,64],"right_children":[2,4,6,8,10,12,14,16,18,20,22,24,26,-1,-1,28,30,32,34,36,38,40,42,-1,44,-1,-1,46,48,50,52,54,56,58,60,62,64,66,68,70,72,74,-1,-1,-1,76,78,80,82,84,86,88,90,92,94,96,98,100,102,104,106,108,110,112,114,-1,-1,-1,-1,-1,-1,-1,-1,-1,-1,-1,-1,-1,-1,-1,-1,-1,-1,-1,-1,-1,-1,-1,-1,-1,-1,-1,-1,-1,-1,-1,-1,-1,-1,-1,-1,-1,-1,-1,-1,-1,-1,-1,-1,-1,-1,-1,-1,-1,-1],"split_conditions":[4.66E2,1.55E2,9.685E2,7.8E1,2.69E2,6.75E2,1.295E3,4.75E1,1.125E2,2.075E2,3.465E2,5.4E2,7.68E2,5.835664E1,9.510969E1,3.15E1,6.3E1,9.35E1,1.335E2,1.8E2,2.375E2,3.025E2,4.04E2,2.247287E1,6E2,3.5380177E1,4.4083424E1,2.25E1,3.95E1,5.5E1,7.1E1,8.55E1,1.03E2,1.235E2,1.45E2,1.68E2,1.925E2,2.22E2,2.53E2,2.855E2,3.165E2,3.845E2,1.837118E1,2.6259953E1,3.018719E1,1.65E1,2.75E1,1E0,1E0,2E0,1E0,2E0,2E0,2E0,4E-2,9.85E1,1.07E2,1.185E2,1.27E2,1.38E2,1.5E2,1.61E2,1.74E2,1.87E2,2E2,5.3918743E0,6.2242618E0,7.2058787E0,8.090866E0,9.014936E0,1.0132079E1,1.10337515E1,1.2222122E1,1.4230838E1,1.618521E1,-6.3274074E0,-5.9214687E0,-5.6381946E0,-5.3939576E0,-5.3135123E0,-4.986204E0,-4.802788E0,-4.51522E0,-4.356309E0,-4.038348E0,-3.8682919E0,-3.564905E0,-3.3981595E0,-3.0570772E0,-2.9408042E0,-2.59401E0,-2.5174775E0,-2.1566858E0,-2.250247E0,-1.9510396E0,-1.6311187E0,-1.3697073E0,-1.1231836E0,-8.2907915E-1,-5.074096E-1,-1.7182466E-1,1.0180944E-1,4.1044432E-1,7.247032E-1,1.0404847E0,1.3975813E0,1.663757E0,2.0258107E0,2.4013748E0,2.785361E0,3.1352456E0,3.4724731E0,3.9196823E0,4.285525E0,4.6750083E0],"split_indices":[16,16,16,16,16,16,16,16,16,16,16,16,16,0,0,16,16,16,16,16,16,16,16,0,16,0,0,16,16,16,16,16,16,16,16,16,16,16,16,16,16,16,0,0,0,16,16,20,20,20,20,20,20,20,17,16,16,16,16,16,16,16,16,16,16,0,0,0,0,0,0,0,0,0,0,0,0,0,0,0,0,0,0,0,0,0,0,0,0,0,0,0,0,0,0,0,0,0,0,0,0,0,0,0,0,0,0,0,0,0,0,0,0,0,0],"split_type":[0,0,0,0,0,0,0,0,0,0,0,0,0,0,0,0,0,0,0,0,0,0,0,0,0,0,0,0,0,0,0,0,0,0,0,0,0,0,0,0,0,0,0,0,0,0,0,0,0,0,0,0,0,0,0,0,0,0,0,0,0,0,0,0,0,0,0,0,0,0,0,0,0,0,0,0,0,0,0,0,0,0,0,0,0,0,0,0,0,0,0,0,0,0,0,0,0,0,0,0,0,0,0,0,0,0,0,0,0,0,0,0,0,0,0],"sum_hessian":[3.9563E4,3.8326E4,1.237E3,3.1624E4,6.702E3,9.31E2,3.06E2,1.9591E4,1.2033E4,4.84E3,1.862E3,6.17E2,3.14E2,1.51E2,1.55E2,9.968E3,9.623E3,7.111E3,4.922E3,3.124E3,1.716E3,1.101E3,7.61E2,3.02E2,3.15E2,1.6E2,1.54E2,4.649E3,5.319E3,5.283E3,4.34E3,3.741E3,3.37E3,2.943E3,1.979E3,1.665E3,1.459E3,9.49E2,7.67E2,6.23E2,4.78E2,4.66E2,2.95E2,1.51E2,1.64E2,1.594E3,3.055E3,2.612E3,2.707E3,2.5E3,2.783E3,2.321E3,2.019E3,1.949E3,1.792E3,1.951E3,1.419E3,1.52E3,1.423E3,1.081E3,8.98E2,9.36E2,7.29E2,6.98E2,7.61E2,4.7E2,4.79E2,4.56E2,3.11E2,3E2,3.23E2,1.61E2,3.17E2,3.11E2,1.55E2,2.79E2,1.315E3,1.702E3,1.353E3,7.43E2,1.869E3,1.429E3,1.278E3,1.592E3,9.08E2,2.116E3,6.67E2,1.923E3,3.98E2,1.687E3,3.32E2,1.696E3,2.53E2,3.92E2,1.4E3,8.66E2,1.085E3,6.27E2,7.92E2,8.99E2,6.21E2,6.06E2,8.17E2,4.73E2,6.08E2,4.23E2,4.75E2,4.75E2,4.61E2,3.47E2,3.82E2,3.81E2,3.17E2,4.09E2,3.52E2],"tree_param":{"num_deleted":"0","num_feature":"22","num_nodes":"115","size_leaf_vector":"1"}},{"base_weights":[3.7242538E-1,-2.3853527E1,8.542156E2,-5.705385E1,1.4239915E2,6.862751E2,9.2084946E1,-8.3072754E1,-1.1973241E1,9.5590034E1,2.7322632E2,5.486589E2,9.7377637E2,-9.839301E1,-6.563685E1,-2.9333487E1,1.4682919E1,6.997493E1,1.3916588E2,2.2901198E2,3.4985648E2,2.3565145E1,6.250192E2,4.147793E1,5.567278E1,-1.0690946E2,-8.983653E1,-7.3280426E1,-5.6049393E1,-3.9135204E1,-1.9365986E1,4.1425056E0,2.8745293E1,5.5825012E1,8.575886E1,1.2181976E2,1.5890773E2,2.0503596E2,2.6034863E2,1.5933397E1,1.9119143E1,2.8815144E1,3.368949E1,-1.1221157E2,-1.0269428E2,-9.349378E1,-8.519536E1,-7.73837E1,-6.8668144E1,-5.9942852E1,-5.1458817E1,-4.3515755E1,-3.4735382E1,-2.4804783E1,-1.2807132E1,-1.2964981E0,1.0002537E1,2.1839973E1,3.4493397E1,4.8842052E1,6.3051926E1,8.005697E1,4.81955E0,5.641111E0,6.5571413E0,7.5148253E0,8.568905E0,9.608756E0,1.0835757E1,1.1939403E1,1.3504359E1,-5.847181E0,-5.498E0,-5.259378E0,-5.025478E0,-4.846637E0,-4.565735E0,-4.3776765E0,-4.100843E0,-3.957466E0,-3.6666455E0,-3.4907906E0,-3.1987903E0,-3.049506E0,-2.72636E0,-2.622688E0,-2.313159E0,-2.397722E0,-2.1101427E0,-1.865845E0,-1.6103007E0,-1.3493954E0,-1.0836099E0,-7.7790076E-1,-5.0321096E-1,-2.3365001E-1,5.6835003E-2,3.4419212E-1,6.451939E-1,9.2233557E-1,1.2585229E0,1.5687017E0,1.9253231E0,2.2858229E0,2.6592815E0,2.9675605E0,3.3351853E0,3.7831943E0,4.2166657E0],"categories":[],"categories_nodes":[],"categories_segments":[],"categories_sizes":[],"default_left":[0,0,0,0,0,0,0,0,0,0,0,0,0,0,0,0,0,0,0,0,0,0,0,0,0,0,0,0,0,0,0,0,0,0,0,0,0,0,0,0,0,0,0,0,0,0,0,0,0,0,0,0,0,0,0,0,0,0,0,0,0,0,0,0,0,0,0,0,0,0,0,0,0,0,0,0,0,0,0,0,0,0,0,0,0,0,0,0,0,0,0,0,0,0,0,0,0,0,0,0,0,0,0,0,0,0,0,0,0],"id":12,"left_children":[1,3,5,7,9,11,-1,13,15,17,19,21,23,25,27,29,31,33,35,37,39,-1,41,-1,-1,43,45,47,49,51,53,55,57,59,61,63,65,67,69,-1,-1,-1,-1,71,73,75,77,79,81,83,85,87,89,91,93,95,97,99,101,103,105,107,-1,-1,-1,-1,-1,-1,-1,-1,-1,-1,-1,-1,-1,-1,-1,-1,-1,-1,-1,-1,-1,-1,-1,-1,-1,-1,-1,-1,-1,-1,-1,-1,-1,-1,-1,-1,-1,-1,-1,-1,-1,-1,-1,-1,-1,-1,-1],"loss_changes":[8.232072E8,2.1361277E8,1.8082669E8,3.783596E7,3.942409E7,3.665667E7,0E0,5.457008E6,5.4637455E6,5.287744E6,5.669576E6,3.474032E6,5.180032E6,7.836E5,6.97132E5,6.977875E5,6.901565E5,6.63225E5,5.81972E5,7.57304E5,5.06088E5,0E0,3.67248E5,0E0,0E0,1.1028E5,8.4308E4,9.5388E4,7.2859E4,6.79505E4,1.26212E5,8.489006E4,7.843325E4,7.66555E4,7.7884E4,6.3973E4,6.2082E4,5.0878E4,3.2932E4,0E0,0E0,0E0,0E0,1.2742E4,6.028E3,1.3854E4,1.086E4,1.428E4,9.072E3,9.6795E3,7.6895E3,8.47725E3,1.0571E4,1.266875E4,1.19915625E4,1.1359407E4,1.1511203E4,9.808469E3,1.2399125E4,8.53825E3,6.4875E3,1.0997E4,0E0,0E0,0E0,0E0,0E0,0E0,0E0,0E0,0E0,0E0,0E0,0E0,0E0,0E0,0E0,0E0,0E0,0E0,0E0,0E0,0E0,0E0,0E0,0E0,0E0,0E0,0E0,0E0,0E0,0E0,0E0,0E0,0E0,0E0,0E0,0E0,0E0,0E0,0E0,0E0,0E0,0E0,0E0,0E0,0E0,0E0,0E0],"parents":[2147483647,0,0,1,1,2,2,3,3,4,4,5,5,7,7,8,8,9,9,10,10,11,11,12,12,13,13,14,14,15,15,16,16,17,17,18,18,19,19,20,20,22,22,25,25,26,26,27,27,28,28,29,29,30,30,31,31,32,32,33,33,34,34,35,35,36,36,37,37,38,38,43,43,44,44,45,45,46,46,47,47,48,48,49,49,50,50,51,51,52,52,53,53,54,54,55,55,56,56,57,57,58,58,59,59,60,60,61,61],"right_children":[2,4,6,8,10,12,-1,14,16,18,20,22,24,26,28,30,32,34,36,38,40,-1,42,-1,-1,44,46,48,50,52,54,56,58,60,62,64,66,68,70,-1,-1,-1,-1,72,74,76,78,80,82,84,86,88,90,92,94,96,98,100,102,104,106,108,-1,-1,-1,-1,-1,-1,-1,-1,-1,-1,-1,-1,-1,-1,-1,-1,-1,-1,-1,-1,-1,-1,-1,-1,-1,-1,-1,-1,-1,-1,-1,-1,-1,-1,-1,-1,-1,-1,-1,-1,-1,-1,-1,-1,-1,-1,-1],"split_conditions":[4.995E2,1.61E2,1.295E3,8.1E1,2.855E2,7.68E2,9.2084946E1,5E1,1.175E2,2.165E2,3.845E2,6E2,9.685E2,3.4E1,6.6E1,9.75E1,1.38E2,1.87E2,2.495E2,3.285E2,4.32E2,2.3565145E1,6.75E2,4.147793E1,5.567278E1,2.5E1,4.3E1,5.85E1,7.45E1,8.85E1,1.07E2,1.27E2,1.49E2,1.74E2,2.03E2,2.315E2,2.69E2,3.025E2,3.465E2,1.5933397E1,1.9119143E1,2.8815144E1,3.368949E1,1.95E1,2.9E1,1E0,2E0,2E0,2E0,2E0,2E0,5E-2,9.25E1,1.02E2,1.125E2,1.22E2,1.32E2,1.43E2,1.55E2,1.68E2,1.8E2,1.955E2,4.81955E0,5.641111E0,6.5571413E0,7.5148253E0,8.568905E0,9.608756E0,1.0835757E1,1.1939403E1,1.3504359E1,-5.847181E0,-5.498E0,-5.259378E0,-5.025478E0,-4.846637E0,-4.565735E0,-4.3776765E0,-4.100843E0,-3.957466E0,-3.6666455E0,-3.4907906E0,-3.1987903E0,-3.049506E0,-2.72636E0,-2.622688E0,-2.313159E0,-2.397722E0,-2.1101427E0,-1.865845E0,-1.6103007E0,-1.3493954E0,-1.0836099E0,-7.7790076E-1,-5.0321096E-1,-2.3365001E-1,5.6835003E-2,3.4419212E-1,6.451939E-1,9.2233557E-1,1.2585229E0,1.5687017E0,1.9253231E0,2.2858229E0,2.6592815E0,2.9675605E0,3.3351853E0,3.7831943E0,4.2166657E0],"split_indices":[16,16,16,16,16,16,0,16,16,16,16,16,16,16,16,16,16,16,16,16,16,0,16,0,0,16,16,16,16,16,16,16,16,16,16,16,16,16,16,0,0,0,0,16,16,20,20,20,20,20,20,17,16,16,16,16,16,16,16,16,16,16,0,0,0,0,0,0,0,0,0,0,0,0,0,0,0,0,0,0,0,0,0,0,0,0,0,0,0,0,0,0,0,0,0,0,0,0,0,0,0,0,0,0,0,0,0,0,0],"split_type":[0,0,0,0,0,0,0,0,0,0,0,0,0,0,0,0,0,0,0,0,0,0,0,0,0,0,0,0,0,0,0,0,0,0,0,0,0,0,0,0,0,0,0,0,0,0,0,0,0,0,0,0,0,0,0,0,0,0,0,0,0,0,0,0,0,0,0,0,0,0,0,0,0,0,0,0,0,0,0,0,0,0,0,0,0,0,0,0,0,0,0,0,0,0,0,0,0,0,0,0,0,0,0,0,0,0,0,0,0],"sum_hessian":[3.9795E4,3.8698E4,1.097E3,3.2257E4,6.441E3,9.39E2,1.58E2,2.0452E4,1.1805E4,4.745E3,1.696E3,6.37E2,3.02E2,1.0884E4,9.568E3,7.149E3,4.656E3,2.99E3,1.755E3,1.078E3,6.18E2,3.2E2,3.17E2,1.52E2,1.5E2,5.449E3,5.435E3,5.32E3,4.248E3,3.603E3,3.546E3,2.662E3,1.994E3,1.579E3,1.411E3,9.38E2,8.17E2,6.15E2,4.63E2,3.21E2,2.97E2,1.65E2,1.52E2,2.402E3,3.047E3,3.029E3,2.406E3,2.807E3,2.513E3,2.292E3,1.956E3,1.801E3,1.802E3,1.937E3,1.609E3,1.381E3,1.281E3,9.08E2,1.086E3,8.07E2,7.72E2,9.24E2,4.87E2,4.84E2,4.54E2,4.91E2,3.26E2,3.01E2,3.14E2,1.52E2,3.11E2,7.58E2,1.644E3,1.401E3,1.646E3,1.158E3,1.871E3,1.366E3,1.04E3,1.942E3,8.65E2,2.008E3,5.05E2,1.912E3,3.8E2,1.634E3,3.22E2,4.03E2,1.398E3,8.85E2,9.17E2,1.137E3,8E2,8.01E2,8.08E2,5.78E2,8.03E2,6.19E2,6.62E2,4.53E2,4.55E2,6.16E2,4.7E2,4.76E2,3.31E2,3.92E2,3.8E2,4.65E2,4.59E2],"tree_param":{"num_deleted":"0","num_feature":"22","num_nodes":"109","size_leaf_vector":"1"}},{"base_weights":[2.6794603E-1,-2.3283556E1,8.135021E2,-5.3962425E1,1.380124E2,6.5399133E2,1.7684598E3,-7.845261E1,-9.836406E0,9.235194E1,2.5903235E2,5.20535E2,9.269159E2,1.5559794E3,9.344384E1,-9.2784256E1,-6.080204E1,-2.6765385E1,1.5405816E1,6.8217735E1,1.3199734E2,2.1774469E2,3.3294727E2,4.4680215E2,5.895623E2,3.9424778E1,5.263505E1,8.119099E1,5.0686993E1,-1.0109571E2,-8.422742E1,-6.772593E1,-5.1453777E1,-3.5904663E1,-1.7631582E1,4.9633503E0,2.9251513E1,5.458657E1,8.146162E1,1.1609982E2,1.5125186E2,1.9480272E2,2.4798006E2,1.5143549E1,1.8202496E1,2.1033926E1,2.3698687E1,2.7234772E1,3.1865086E1,-1.0614156E2,-9.671041E1,-8.813187E1,-8.01652E1,-7.1891815E1,-6.354877E1,-5.569494E1,-4.836554E1,-3.9272495E1,-3.0690313E1,-2.2171677E1,-1.0865885E1,-1.3386177E-1,1.0867904E1,2.3374418E1,3.5823486E1,4.7841957E1,6.0011723E1,7.606677E1,4.593241E0,5.370049E0,6.230235E0,6.9163547E0,7.9568505E0,9.121077E0,1.0327877E1,1.1855046E1,1.33969755E1,-5.5417013E0,-5.19334E0,-4.953031E0,-4.732488E0,-4.5699053E0,-4.293115E0,-4.1186676E0,-3.8418343E0,-3.6698017E0,-3.4029062E0,-3.2309253E0,-2.9416106E0,-3.0159876E0,-2.7256334E0,-2.6154723E0,-2.3599708E0,-2.0099628E0,-1.6429691E0,-1.571228E0,-1.2232547E0,-1.2328446E0,-9.617761E-1,-7.6490456E-1,-4.7636595E-1,-1.3364056E-1,1.376362E-1,4.2791805E-1,7.139861E-1,9.824751E-1,1.3094097E0,1.6713256E0,2.019963E0,2.1555612E0,2.4987295E0,2.8267872E0,3.164685E0,3.6003883E0,4.0015807E0],"categories":[],"categories_nodes":[],"categories_segments":[],"categories_sizes":[],"default_left":[0,0,0,0,0,0,0,0,0,0,0,0,0,0,0,0,0,0,0,0,0,0,0,0,0,0,0,0,0,0,0,0,0,0,0,0,0,0,0,0,0,0,0,0,0,0,0,0,0,0,0,0,0,0,0,0,0,0,0,0,0,0,0,0,0,0,0,0,0,0,0,0,0,0,0,0,0,0,0,0,0,0,0,0,0,0,0,0,0,0,0,0,0,0,0,0,0,0,0,0,0,0,0,0,0,0,0,0,0,0,0,0,0,0,0],"id":13,"left_children":[1,3,5,7,9,11,13,15,17,19,21,23,25,27,-1,29,31,33,35,37,39,41,43,45,47,-1,-1,-1,-1,49,51,53,55,57,59,61,63,65,67,69,71,73,75,-1,-1,-1,-1,-1,-1,77,79,81,83,85,87,89,91,93,95,97,99,101,103,105,107,109,111,113,-1,-1,-1,-1,-1,-1,-1,-1,-1,-1,-1,-1,-1,-1,-1,-1,-1,-1,-1,-1,-1,-1,-1,-1,-1,-1,-1,-1,-1,-1,-1,-1,-1,-1,-1,-1,-1,-1,-1,-1,-1,-1,-1,-1,-1,-1,-1],"loss_changes":[7.587606E8,1.9052493E8,1.6868691E8,3.495731E7,3.397648E7,3.4374816E7,4.84576E5,5.256712E6,4.934735E6,4.26698E6,5.069744E6,3.019376E6,4.61968E6,4.50656E5,0E0,8.07872E5,6.00084E5,5.763555E5,6.701426E5,4.97425E5,4.99746E5,7.0362E5,4.52884E5,2.4904E4,3.59696E5,0E0,0E0,0E0,0E0,1.18472E5,8.274E4,8.86E4,4.9331E4,5.94505E4,1.06008875E5,7.957728E4,7.61405E4,4.73675E4,7.2035E4,5.5422E4,5.5544E4,5.27E4,3.7226E4,0E0,0E0,0E0,0E0,0E0,0E0,1.7256E4,5.752E3,1.348E4,1.4148E4,1.0419E4,9.73E3,5.827E3,8.1365E3,1.11305E4,5.4475E3,1.46231875E4,8.1067656E3,1.0414388E4,9.530469E3,1.0542875E4,8.9485E3,4.070375E3,5.0575E3,9.252E3,0E0,0E0,0E0,0E0,0E0,0E0,0E0,0E0,0E0,0E0,0E0,0E0,0E0,0E0,0E0,0E0,0E0,0E0,0E0,0E0,0E0,0E0,0E0,0E0,0E0,0E0,0E0,0E0,0E0,0E0,0E0,0E0,0E0,0E0,0E0,0E0,0E0,0E0,0E0,0E0,0E0,0E0,0E0,0E0,0E0,0E0,0E0],"parents":[2147483647,0,0,1,1,2,2,3,3,4,4,5,5,6,6,7,7,8,8,9,9,10,10,11,11,12,12,13,13,15,15,16,16,17,17,18,18,19,19,20,20,21,21,22,22,23,23,24,24,29,29,30,30,31,31,32,32,33,33,34,34,35,35,36,36,37,37,38,38,39,39,40,40,41,41,42,42,49,49,50,50,51,51,52,52,53,53,54,54,55,55,56,56,57,57,58,58,59,59,60,60,61,61,62,62,63,63,64,64,65,65,66,66,67,67],"right_children":[2,4,6,8,10,12,14,16,18,20,22,24,26,28,-1,30,32,34,36,38,40,42,44,46,48,-1,-1,-1,-1,50,52,54,56,58,60,62,64,66,68,70,72,74,76,-1,-1,-1,-1,-1,-1,78,80,82,84,86,88,90,92,94,96,98,100,102,104,106,108,110,112,114,-1,-1,-1,-1,-1,-1,-1,-1,-1,-1,-1,-1,-1,-1,-1,-1,-1,-1,-1,-1,-1,-1,-1,-1,-1,-1,-1,-1,-1,-1,-1,-1,-1,-1,-1,-1,-1,-1,-1,-1,-1,-1,-1,-1,-1,-1,-1],"split_conditions":[4.995E2,1.64E2,1.295E3,8.25E1,2.855E2,7.68E2,3.14E2,5.1E1,1.185E2,2.165E2,3.845E2,6E2,9.685E2,3.9E-1,9.344384E1,3.5E1,6.8E1,9.85E1,1.4E2,1.87E2,2.495E2,3.285E2,4.32E2,5.4E2,6.75E2,3.9424778E1,5.263505E1,8.119099E1,5.0686993E1,2.55E1,4.35E1,6E1,7.45E1,9.1E1,1.09E2,1.285E2,1.505E2,1.74E2,2.03E2,2.315E2,2.605E2,3.025E2,3.635E2,1.5143549E1,1.8202496E1,2.1033926E1,2.3698687E1,2.7234772E1,3.1865086E1,2E1,3E1,1E0,2E0,2E0,2E0,4E-2,6E-2,2E0,2E0,1.03E2,5E-2,1.245E2,1.35E2,1.45E2,1.59E2,4E-2,1.8E2,1.955E2,4.593241E0,5.370049E0,6.230235E0,6.9163547E0,7.9568505E0,9.121077E0,1.0327877E1,1.1855046E1,1.33969755E1,-5.5417013E0,-5.19334E0,-4.953031E0,-4.732488E0,-4.5699053E0,-4.293115E0,-4.1186676E0,-3.8418343E0,-3.6698017E0,-3.4029062E0,-3.2309253E0,-2.9416106E0,-3.0159876E0,-2.7256334E0,-2.6154723E0,-2.3599708E0,-2.0099628E0,-1.6429691E0,-1.571228E0,-1.2232547E0,-1.2328446E0,-9.617761E-1,-7.6490456E-1,-4.7636595E-1,-1.3364056E-1,1.376362E-1,4.2791805E-1,7.139861E-1,9.824751E-1,1.3094097E0,1.6713256E0,2.019963E0,2.1555612E0,2.4987295E0,2.8267872E0,3.164685E0,3.6003883E0,4.0015807E0],"split_indices":[16,16,16,16,16,16,12,16,16,16,16,16,16,17,0,16,16,16,16,16,16,16,16,16,16,0,0,0,0,16,16,16,16,16,16,16,16,16,16,16,16,16,16,0,0,0,0,0,0,16,16,20,20,20,20,17,17,20,20,16,17,16,16,16,16,17,16,16,0,0,0,0,0,0,0,0,0,0,0,0,0,0,0,0,0,0,0,0,0,0,0,0,0,0,0,0,0,0,0,0,0,0,0,0,0,0,0,0,0,0,0,0,0,0,0],"split_type":[0,0,0,0,0,0,0,0,0,0,0,0,0,0,0,0,0,0,0,0,0,0,0,0,0,0,0,0,0,0,0,0,0,0,0,0,0,0,0,0,0,0,0,0,0,0,0,0,0,0,0,0,0,0,0,0,0,0,0,0,0,0,0,0,0,0,0,0,0,0,0,0,0,0,0,0,0,0,0,0,0,0,0,0,0,0,0,0,0,0,0,0,0,0,0,0,0,0,0,0,0,0,0,0,0,0,0,0,0,0,0,0,0,0,0],"sum_hessian":[3.9614E4,3.85E4,1.114E3,3.2348E4,6.152E3,9.56E2,1.58E2,2.0802E4,1.1546E4,4.468E3,1.684E3,6.44E2,3.12E2,5.6E1,1.02E2,1.1478E4,9.324E3,6.911E3,4.635E3,2.779E3,1.689E3,1.083E3,6.01E2,3.15E2,3.29E2,1.52E2,1.6E2,4.8E1,8E0,5.817E3,5.661E3,5.353E3,3.971E3,3.453E3,3.458E3,2.643E3,1.992E3,1.372E3,1.407E3,9.29E2,7.6E2,6.2E2,4.63E2,3.11E2,2.9E2,1.69E2,1.46E2,1.76E2,1.53E2,2.694E3,3.123E3,2.876E3,2.785E3,2.672E3,2.681E3,1.666E3,2.305E3,2.094E3,1.359E3,2.068E3,1.39E3,1.419E3,1.224E3,1.054E3,9.38E2,6.16E2,7.56E2,9.32E2,4.75E2,4.66E2,4.63E2,2.95E2,4.65E2,3.1E2,3.1E2,3.08E2,1.55E2,8.64E2,1.83E3,1.437E3,1.686E3,1.163E3,1.713E3,1.66E3,1.125E3,1.906E3,7.66E2,2.175E3,5.06E2,3.29E2,1.337E3,5.16E2,1.789E3,1.825E3,2.69E2,1.212E3,1.47E2,1.116E3,9.52E2,3.2E2,1.07E3,7.55E2,6.64E2,7.32E2,4.92E2,4.57E2,5.97E2,6.21E2,3.17E2,1.98E2,4.18E2,3.76E2,3.8E2,4.7E2,4.62E2],"tree_param":{"num_deleted":"0","num_feature":"22","num_nodes":"115","size_leaf_vector":"1"}},{"base_weights":[-1.6797128E-1,-2.240537E1,7.6483826E2,-5.1205246E1,1.3101872E2,6.198508E2,1.6291117E3,-7.450211E1,-9.119212E0,8.771459E1,2.4590074E2,4.960121E2,8.714328E2,8.225254E1,4.715874E1,-8.8154045E1,-5.775313E1,-2.547488E1,1.4742671E1,6.460522E1,1.25660225E2,1.9898209E2,3.033001E2,4.260362E2,5.631957E2,3.785575E1,4.952734E1,-9.572524E1,-7.9744705E1,-6.47869E1,-4.9409767E1,-3.339911E1,-1.564437E1,5.485598E0,2.851809E1,5.3040634E1,7.8672325E1,1.100871E2,1.4363708E2,8.981131E0,2.186282E2,2.7706033E2,1.7191336E1,2.0043882E1,2.2627836E1,2.5977411E1,3.0288916E1,-1.00741905E2,-9.162262E1,-8.307833E1,-7.57612E1,-6.856815E1,-6.0995113E1,-5.348736E1,-4.595997E1,-3.729266E1,-2.8545713E1,-2.0242977E1,-1.0121437E1,4.6429804E-1,1.1681476E1,2.3702248E1,3.4943638E1,4.6952366E1,5.9228653E1,7.3433174E1,4.3534045E0,5.0990777E0,5.92107E0,6.774635E0,7.763884E0,1.0480845E1,1.1649976E1,1.2744742E1,1.4388867E1,-5.2301865E0,-4.9161606E0,-4.6847687E0,-4.469236E0,-4.25396E0,-4.055745E0,-3.890503E0,-3.7225587E0,-3.6308439E0,-3.3787372E0,-3.251107E0,-2.9926565E0,-2.8983757E0,-2.610167E0,-2.5004318E0,-2.241331E0,-2.1034338E0,-1.8030844E0,-1.6328601E0,-1.3628752E0,-1.2105144E0,-9.271659E-1,-6.2040716E-1,-3.7767324E-1,-1.2247472E-1,1.6320868E-1,4.7762665E-1,7.693179E-1,1.0189675E0,1.3195472E0,1.6418911E0,1.9069194E0,2.215634E0,2.540942E0,2.8219275E0,3.1601565E0,3.4861114E0,3.8027217E0],"categories":[],"categories_nodes":[],"categories_segments":[],"categories_sizes":[],"default_left":[0,0,0,0,0,0,0,0,0,0,0,0,0,0,0,0,0,0,0,0,0,0,0,0,0,0,0,0,0,0,0,0,0,0,0,0,0,0,0,0,0,0,0,0,0,0,0,0,0,0,0,0,0,0,0,0,0,0,0,0,0,0,0,0,0,0,0,0,0,0,0,0,0,0,0,0,0,0,0,0,0,0,0,0,0,0,0,0,0,0,0,0,0,0,0,0,0,0,0,0,0,0,0,0,0,0,0,0,0,0,0,0,0],"id":14,"left_children":[1,3,5,7,9,11,13,15,17,19,21,23,25,-1,-1,27,29,31,33,35,37,39,41,43,45,-1,-1,47,49,51,53,55,57,59,61,63,65,67,69,-1,71,73,-1,-1,-1,-1,-1,75,77,79,81,83,85,87,89,91,93,95,97,99,101,103,105,107,109,111,-1,-1,-1,-1,-1,-1,-1,-1,-1,-1,-1,-1,-1,-1,-1,-1,-1,-1,-1,-1,-1,-1,-1,-1,-1,-1,-1,-1,-1,-1,-1,-1,-1,-1,-1,-1,-1,-1,-1,-1,-1,-1,-1,-1,-1,-1,-1],"loss_changes":[6.7752704E8,1.7101515E8,1.3996256E8,3.1949008E7,3.0409688E7,2.9632928E7,2.08672E5,4.790968E6,4.532273E6,3.888828E6,4.447904E6,2.811168E6,3.566576E6,0E0,0E0,7.27992E5,5.49732E5,5.36203E5,6.0212075E5,4.45476E5,4.54792E5,3.1216E5,7.0336E5,3.3424E4,2.94896E5,0E0,0E0,1.158E5,6.6476E4,6.9068E4,5.8225E4,7.10085E4,7.7944125E4,8.791526E4,5.790425E4,5.4484E4,4.83695E4,4.9059E4,5.2626E4,0E0,9.954E3,3.616E4,0E0,0E0,0E0,0E0,0E0,1.5148E4,7.178E3,4.78E3,9.39E2,5.349E3,7.882E3,8.312E3,8.514E3,1.090525E4,8.1245E3,1.08659375E4,8.1273594E3,1.2751191E4,9.8306875E3,9.1826875E3,4.2036875E3,5.617125E3,4.75E3,2.21625E3,0E0,0E0,0E0,0E0,0E0,0E0,0E0,0E0,0E0,0E0,0E0,0E0,0E0,0E0,0E0,0E0,0E0,0E0,0E0,0E0,0E0,0E0,0E0,0E0,0E0,0E0,0E0,0E0,0E0,0E0,0E0,0E0,0E0,0E0,0E0,0E0,0E0,0E0,0E0,0E0,0E0,0E0,0E0,0E0,0E0,0E0,0E0],"parents":[2147483647,0,0,1,1,2,2,3,3,4,4,5,5,6,6,7,7,8,8,9,9,10,10,11,11,12,12,15,15,16,16,17,17,18,18,19,19,20,20,21,21,22,22,23,23,24,24,27,27,28,28,29,29,30,30,31,31,32,32,33,33,34,34,35,35,36,36,37,37,38,38,40,40,41,41,47,47,48,48,49,49,50,50,51,51,52,52,53,53,54,54,55,55,56,56,57,57,58,58,59,59,60,60,61,61,62,62,63,63,64,64,65,65],"right_children":[2,4,6,8,10,12,14,16,18,20,22,24,26,-1,-1,28,30,32,34,36,38,40,42,44,46,-1,-1,48,50,52,54,56,58,60,62,64,66,68,70,-1,72,74,-1,-1,-1,-1,-1,76,78,80,82,84,86,88,90,92,94,96,98,100,102,104,106,108,110,112,-1,-1,-1,-1,-1,-1,-1,-1,-1,-1,-1,-1,-1,-1,-1,-1,-1,-1,-1,-1,-1,-1,-1,-1,-1,-1,-1,-1,-1,-1,-1,-1,-1,-1,-1,-1,-1,-1,-1,-1,-1,-1,-1,-1,-1,-1,-1],"split_conditions":[4.995E2,1.64E2,1.295E3,8.25E1,2.855E2,7.68E2,1.81E0,5.1E1,1.185E2,2.165E2,3.635E2,6E2,9.685E2,8.225254E1,4.715874E1,3.55E1,6.75E1,1E2,1.41E2,1.895E2,2.495E2,3.165E2,4.32E2,5.4E2,6.75E2,3.785575E1,4.952734E1,2.55E1,4.45E1,5.95E1,7.45E1,9.1E1,1.09E2,1.3E2,1.525E2,1.755E2,2.03E2,2.315E2,2.69E2,8.981131E0,3.465E2,3.845E2,1.7191336E1,2.0043882E1,2.2627836E1,2.5977411E1,3.0288916E1,2.05E1,3.05E1,4E1,4.7E1,5E-2,5E-2,5E-2,5E-2,1E0,6E-2,6E-2,1.135E2,1.245E2,1.365E2,1.47E2,1.59E2,1.71E2,1.83E2,1.955E2,4.3534045E0,5.0990777E0,5.92107E0,6.774635E0,7.763884E0,1.0480845E1,1.1649976E1,1.2744742E1,1.4388867E1,-5.2301865E0,-4.9161606E0,-4.6847687E0,-4.469236E0,-4.25396E0,-4.055745E0,-3.890503E0,-3.7225587E0,-3.6308439E0,-3.3787372E0,-3.251107E0,-2.9926565E0,-2.8983757E0,-2.610167E0,-2.5004318E0,-2.241331E0,-2.1034338E0,-1.8030844E0,-1.6328601E0,-1.3628752E0,-1.2105144E0,-9.271659E-1,-6.2040716E-1,-3.7767324E-1,-1.2247472E-1,1.6320868E-1,4.7762665E-1,7.693179E-1,1.0189675E0,1.3195472E0,1.6418911E0,1.9069194E0,2.215634E0,2.540942E0,2.8219275E0,3.1601565E0,3.4861114E0,3.8027217E0],"split_indices":[16,16,16,16,16,16,17,16,16,16,16,16,16,0,0,16,16,16,16,16,16,16,16,16,16,0,0,16,16,16,16,16,16,16,16,16,16,16,16,0,16,16,0,0,0,0,0,16,16,16,16,17,17,17,17,11,17,17,16,16,16,16,16,16,16,16,0,0,0,0,0,0,0,0,0,0,0,0,0,0,0,0,0,0,0,0,0,0,0,0,0,0,0,0,0,0,0,0,0,0,0,0,0,0,0,0,0,0,0,0,0,0,0],"split_type":[0,0,0,0,0,0,0,0,0,0,0,0,0,0,0,0,0,0,0,0,0,0,0,0,0,0,0,0,0,0,0,0,0,0,0,0,0,0,0,0,0,0,0,0,0,0,0,0,0,0,0,0,0,0,0,0,0,0,0,0,0,0,0,0,0,0,0,0,0,0,0,0,0,0,0,0,0,0,0,0,0,0,0,0,0,0,0,0,0,0,0,0,0,0,0,0,0,0,0,0,0,0,0,0,0,0,0,0,0,0,0,0,0],"sum_hessian":[3.9825E4,3.8701E4,1.124E3,3.2585E4,6.116E3,9.64E2,1.6E2,2.0974E4,1.1611E4,4.443E3,1.673E3,6.48E2,3.16E2,1.55E2,5E0,1.1553E4,9.421E3,6.889E3,4.722E3,2.763E3,1.68E3,9.23E2,7.5E2,3.21E2,3.27E2,1.65E2,1.51E2,6.074E3,5.479E3,5.108E3,4.313E3,3.813E3,3.076E3,2.825E3,1.897E3,1.519E3,1.244E3,9.04E2,7.76E2,4.7E2,4.53E2,4.6E2,2.9E2,1.73E2,1.48E2,1.68E2,1.59E2,2.722E3,3.352E3,2.972E3,2.507E3,2.549E3,2.559E3,1.97E3,2.343E3,2.112E3,1.701E3,1.677E3,1.399E3,1.561E3,1.264E3,1.087E3,8.1E2,7.7E2,7.49E2,7.72E2,4.72E2,4.65E2,4.39E2,4.64E2,3.12E2,2.88E2,1.65E2,1.58E2,3.02E2,1.032E3,1.69E3,1.719E3,1.633E3,1.451E3,1.521E3,9.55E2,